
/* Species #1 : (Size 1000) (AF 113.602) (Age 2)  */


/* Organism #0 Fitness: 21 Error: 0 */
genomestart 0
trait 1 0.1 0 0 0 0 0 0 0 
trait 2 0.2 0 0 0 0 0 0 0 
trait 3 0.3 0 0 0 0 0 0 0 
node 1 2 1 3
node 2 3 1 1
node 3 2 1 1
node 4 3 1 1
node 5 2 1 1
node 6 2 0 2
node 7 1 0 2
gene 3 1 6 0.141272 0 1 0.141272 1
gene 3 2 6 0.834503 0 2 0.834503 1
gene 3 3 6 0.297916 0 3 0.297916 1
gene 1 4 6 -0.662333 0 4 -0.662333 1
gene 1 5 6 -0.947742 0 5 -0.947742 1
gene 2 1 7 -0.321211 0 6 -0.321211 1
gene 2 2 7 -0.111491 0 7 -0.111491 1
gene 3 3 7 0.879409 0 8 0.879409 1
gene 3 4 7 -0.414628 0 9 -0.414628 1
gene 1 5 7 0.42252 0 10 0.42252 1
genomeend 0

/* Organism #1 Fitness: 8 Error: 0 */
genomestart 1
trait 1 0.1 0 0 0 0 0 0 0 
trait 2 0.2 0 0 0 0 0 0 0 
trait 3 0.3 0 0 0 0 0 0 0 
node 1 2 1 3
node 2 3 1 1
node 3 2 1 1
node 4 3 1 1
node 5 3 1 1
node 6 1 0 2
node 7 3 0 2
gene 3 1 6 1.59393 0 1 1.59393 1
gene 2 2 6 -0.0165624 0 2 -0.0165624 1
gene 3 3 6 -0.21769 0 3 -0.21769 1
gene 2 4 6 0.0267976 0 4 0.0267976 1
gene 3 5 6 0.732744 0 5 0.732744 1
gene 1 1 7 -0.0598654 0 6 -0.0598654 1
gene 3 2 7 0.0539041 0 7 0.0539041 1
gene 2 3 7 0.648108 0 8 0.648108 1
gene 3 4 7 1.52871 0 9 1.52871 1
gene 2 5 7 -0.204692 0 10 -0.204692 1
genomeend 1

/* Organism #2 Fitness: 8 Error: 0 */
genomestart 2
trait 1 0.1 0 0 0 0 0 0 0 
trait 2 0.2 0 0 0 0 0 0 0 
trait 3 0.3 0 0 0 0 0 0 0 
node 1 2 1 3
node 2 1 1 1
node 3 2 1 1
node 4 3 1 1
node 5 2 1 1
node 6 2 0 2
node 7 3 0 2
gene 3 1 6 0.805763 0 1 0.805763 1
gene 3 2 6 0.747902 0 2 0.747902 1
gene 1 3 6 0.0795779 0 3 0.0795779 1
gene 1 4 6 0.757909 0 4 0.757909 1
gene 1 5 6 0.0434436 0 5 0.0434436 1
gene 3 1 7 0.615538 0 6 0.615538 1
gene 1 2 7 0.215096 0 7 0.215096 1
gene 2 3 7 0.651717 0 8 0.651717 1
gene 1 4 7 0.0262761 0 9 0.0262761 1
gene 2 5 7 -1.15019 0 10 -1.15019 1
genomeend 2

/* Organism #3 Fitness: 16 Error: 0 */
genomestart 3
trait 1 0.1 0 0 0 0 0 0 0 
trait 2 0.2 0 0 0 0 0 0 0 
trait 3 0.3 0 0 0 0 0 0 0 
node 1 1 1 3
node 2 3 1 1
node 3 3 1 1
node 4 3 1 1
node 5 2 1 1
node 6 1 0 2
node 7 3 0 2
gene 1 1 6 -0.24357 0 1 -0.24357 1
gene 2 2 6 -0.00862208 0 2 -0.00862208 1
gene 3 3 6 -0.365238 0 3 -0.365238 1
gene 2 4 6 -1.29898 0 4 -1.29898 1
gene 2 5 6 -1.03266 0 5 -1.03266 1
gene 1 1 7 0.552486 0 6 0.552486 1
gene 1 2 7 -0.101885 0 7 -0.101885 1
gene 2 3 7 -0.318737 0 8 -0.318737 1
gene 1 4 7 0.0217977 0 9 0.0217977 1
gene 1 5 7 -0.542462 0 10 -0.542462 1
genomeend 3

/* Organism #4 Fitness: 1 Error: 0 */
genomestart 4
trait 1 0.1 0 0 0 0 0 0 0 
trait 2 0.2 0 0 0 0 0 0 0 
trait 3 0.3 0 0 0 0 0 0 0 
node 1 2 1 3
node 2 3 1 1
node 3 2 1 1
node 4 3 1 1
node 5 2 1 1
node 6 1 0 2
node 7 1 0 2
gene 1 1 6 -0.0832677 0 1 -0.0832677 1
gene 2 2 6 -0.147332 0 2 -0.147332 1
gene 3 3 6 -0.360648 0 3 -0.360648 1
gene 2 4 6 -0.619054 0 4 -0.619054 1
gene 2 5 6 -0.0918296 0 5 -0.0918296 1
gene 3 1 7 -0.980042 0 6 -0.980042 1
gene 2 2 7 0.424547 0 7 0.424547 1
gene 1 3 7 0.193625 0 8 0.193625 1
gene 3 4 7 -1.18368 0 9 -1.18368 1
gene 3 5 7 0.111671 0 10 0.111671 1
genomeend 4

/* Organism #5 Fitness: 18 Error: 0 */
genomestart 5
trait 1 0.1 0 0 0 0 0 0 0 
trait 2 0.2 0 0 0 0 0 0 0 
trait 3 0.3 0 0 0 0 0 0 0 
node 1 2 1 3
node 2 3 1 1
node 3 3 1 1
node 4 2 1 1
node 5 1 1 1
node 6 2 0 2
node 7 1 0 2
gene 1 1 6 0.202153 0 1 0.202153 1
gene 2 2 6 0.869326 0 2 0.869326 1
gene 2 3 6 1.10594 0 3 1.10594 1
gene 1 4 6 0.473948 0 4 0.473948 1
gene 2 5 6 -0.209452 0 5 -0.209452 1
gene 2 1 7 -1.01982 0 6 -1.01982 1
gene 2 2 7 0.00337422 0 7 0.00337422 1
gene 3 3 7 -1.02034 0 8 -1.02034 1
gene 3 4 7 0.717445 0 9 0.717445 1
gene 3 5 7 0.334154 0 10 0.334154 1
genomeend 5

/* Organism #6 Fitness: 11 Error: 0 */
genomestart 6
trait 1 0.1 0 0 0 0 0 0 0 
trait 2 0.2 0 0 0 0 0 0 0 
trait 3 0.3 0 0 0 0 0 0 0 
node 1 1 1 3
node 2 1 1 1
node 3 2 1 1
node 4 2 1 1
node 5 2 1 1
node 6 3 0 2
node 7 3 0 2
gene 2 1 6 -0.468956 0 1 -0.468956 1
gene 1 2 6 -0.224223 0 2 -0.224223 1
gene 2 3 6 0.454251 0 3 0.454251 1
gene 3 4 6 0.210108 0 4 0.210108 1
gene 3 5 6 0.701453 0 5 0.701453 1
gene 2 1 7 0.928776 0 6 0.928776 1
gene 2 2 7 -0.173641 0 7 -0.173641 1
gene 1 3 7 0.0976272 0 8 0.0976272 1
gene 1 4 7 0.344132 0 9 0.344132 1
gene 3 5 7 -0.408103 0 10 -0.408103 1
genomeend 6

/* Organism #7 Fitness: 4 Error: 0 */
genomestart 7
trait 1 0.1 0 0 0 0 0 0 0 
trait 2 0.2 0 0 0 0 0 0 0 
trait 3 0.3 0 0 0 0 0 0 0 
node 1 3 1 3
node 2 1 1 1
node 3 2 1 1
node 4 2 1 1
node 5 2 1 1
node 6 3 0 2
node 7 2 0 2
gene 3 1 6 0.708542 0 1 0.708542 1
gene 2 2 6 0.932869 0 2 0.932869 1
gene 2 3 6 1.29677 0 3 1.29677 1
gene 2 4 6 0.320214 0 4 0.320214 1
gene 2 5 6 0.798994 0 5 0.798994 1
gene 3 1 7 -0.013522 0 6 -0.013522 1
gene 3 2 7 -0.7353 0 7 -0.7353 1
gene 3 3 7 -1.17908 0 8 -1.17908 1
gene 3 4 7 1.46003 0 9 1.46003 1
gene 1 5 7 0.787875 0 10 0.787875 1
genomeend 7

/* Organism #8 Fitness: 4 Error: 0 */
genomestart 8
trait 1 0.1 0 0 0 0 0 0 0 
trait 2 0.2 0 0 0 0 0 0 0 
trait 3 0.3 0 0 0 0 0 0 0 
node 1 2 1 3
node 2 3 1 1
node 3 3 1 1
node 4 2 1 1
node 5 1 1 1
node 6 2 0 2
node 7 3 0 2
gene 3 1 6 0.0104868 0 1 0.0104868 1
gene 1 2 6 -0.328031 0 2 -0.328031 1
gene 1 3 6 0.524805 0 3 0.524805 1
gene 2 4 6 0.188802 0 4 0.188802 1
gene 3 5 6 0.358424 0 5 0.358424 1
gene 2 1 7 0.0955653 0 6 0.0955653 1
gene 2 2 7 0.145788 0 7 0.145788 1
gene 2 3 7 0.0958551 0 8 0.0958551 1
gene 1 4 7 -0.111762 0 9 -0.111762 1
gene 1 5 7 0.159848 0 10 0.159848 1
gene 1 6 7 -0.0904572 0 11 -0.0904572 1
genomeend 8

/* Organism #9 Fitness: 7 Error: 0 */
genomestart 9
trait 1 0.1 0 0 0 0 0 0 0 
trait 2 0.2 0 0 0 0 0 0 0 
trait 3 0.3 0 0 0 0 0 0 0 
node 1 3 1 3
node 2 1 1 1
node 3 3 1 1
node 4 1 1 1
node 5 3 1 1
node 6 2 0 2
node 7 2 0 2
gene 1 1 6 0.6439 0 1 0.6439 1
gene 2 2 6 0.0182747 0 2 0.0182747 1
gene 2 3 6 -0.0398512 0 3 -0.0398512 1
gene 1 4 6 0.553851 0 4 0.553851 1
gene 3 5 6 -0.810124 0 5 -0.810124 1
gene 2 1 7 -0.4996 0 6 -0.4996 1
gene 1 2 7 -0.445038 0 7 -0.445038 1
gene 2 3 7 -0.246505 0 8 -0.246505 1
gene 2 4 7 0.0110631 0 9 0.0110631 1
gene 1 5 7 0.125018 0 10 0.125018 1
gene 1 6 7 -0.0904572 0 11 0 1
genomeend 9

/* Organism #10 Fitness: 49 Error: 0 */
genomestart 10
trait 1 0.1 0 0 0 0 0 0 0 
trait 2 0.2 0 0 0 0 0 0 0 
trait 3 0.3 0 0 0 0 0 0 0 
node 1 2 1 3
node 2 3 1 1
node 3 3 1 1
node 4 1 1 1
node 5 1 1 1
node 6 3 0 2
node 7 2 0 2
gene 3 1 6 0.343505 0 1 0.343505 1
gene 1 2 6 0.62911 0 2 0.62911 1
gene 2 3 6 -0.415247 0 3 -0.415247 1
gene 2 4 6 -0.474303 0 4 -0.474303 1
gene 2 5 6 -0.8582 0 5 -0.8582 1
gene 2 1 7 0.0128488 0 6 0.0128488 1
gene 1 2 7 -0.181599 0 7 -0.181599 1
gene 1 3 7 -1.08622 0 8 -1.08622 1
gene 2 4 7 0.70699 0 9 0.70699 1
gene 2 5 7 0.313418 0 10 0.313418 1
genomeend 10

/* Organism #11 Fitness: 7 Error: 0 */
genomestart 11
trait 1 0.1 0 0 0 0 0 0 0 
trait 2 0.2 0 0 0 0 0 0 0 
trait 3 0.3 0 0 0 0 0 0 0 
node 1 1 1 3
node 2 3 1 1
node 3 3 1 1
node 4 3 1 1
node 5 2 1 1
node 6 1 0 2
node 7 1 0 2
gene 1 1 6 0.350263 0 1 0.350263 1
gene 3 2 6 0.132542 0 2 0.132542 1
gene 3 3 6 0.137036 0 3 0.137036 1
gene 1 4 6 -0.542143 0 4 -0.542143 1
gene 3 5 6 -0.869378 0 5 -0.869378 1
gene 2 1 7 -0.980911 0 6 -0.980911 1
gene 1 2 7 0.518264 0 7 0.518264 1
gene 2 3 7 1.08822 0 8 1.08822 1
gene 1 4 7 0.607012 0 9 0.607012 1
gene 1 5 7 -0.838895 0 10 -0.838895 1
genomeend 11

/* Organism #12 Fitness: 5 Error: 0 */
genomestart 12
trait 1 0.1 0 0 0 0 0 0 0 
trait 2 0.2 0 0 0 0 0 0 0 
trait 3 0.3 0 0 0 0 0 0 0 
node 1 3 1 3
node 2 2 1 1
node 3 2 1 1
node 4 1 1 1
node 5 2 1 1
node 6 1 0 2
node 7 1 0 2
gene 1 1 6 -0.127123 0 1 -0.127123 1
gene 3 2 6 0.571092 0 2 0.571092 1
gene 2 3 6 0.514675 0 3 0.514675 1
gene 3 4 6 -0.363739 0 4 -0.363739 1
gene 2 5 6 -0.483363 0 5 -0.483363 1
gene 2 1 7 0.574189 0 6 0.574189 1
gene 3 2 7 -0.859697 0 7 -0.859697 1
gene 2 3 7 0.259707 0 8 0.259707 1
gene 3 4 7 -0.231779 0 9 -0.231779 1
gene 1 5 7 -0.708187 0 10 -0.708187 1
gene 3 7 7 0.706816 1 12 0.706816 1
genomeend 12

/* Organism #13 Fitness: 10 Error: 0 */
genomestart 13
trait 1 0.1 0 0 0 0 0 0 0 
trait 2 0.2 0 0 0 0 0 0 0 
trait 3 0.3 0 0 0 0 0 0 0 
node 1 1 1 3
node 2 3 1 1
node 3 3 1 1
node 4 2 1 1
node 5 3 1 1
node 6 2 0 2
node 7 1 0 2
gene 3 1 6 -0.564733 0 1 -0.564733 1
gene 1 2 6 -0.327674 0 2 -0.327674 1
gene 3 3 6 0.501347 0 3 0.501347 1
gene 2 4 6 -0.238526 0 4 -0.238526 1
gene 1 5 6 -0.34463 0 5 -0.34463 1
gene 1 1 7 0.845208 0 6 0.845208 1
gene 3 2 7 0.910793 0 7 0.910793 1
gene 1 3 7 -0.874462 0 8 -0.874462 1
gene 3 4 7 0.594795 0 9 0.594795 1
gene 3 5 7 0.596853 0 10 0.596853 1
gene 1 6 7 -0.0904572 0 11 0 1
genomeend 13

/* Organism #14 Fitness: 7 Error: 0 */
genomestart 14
trait 1 0.1 0 0 0 0 0 0 0 
trait 2 0.2 0 0 0 0 0 0 0 
trait 3 0.3 0 0 0 0 0 0 0 
node 1 1 1 3
node 2 1 1 1
node 3 2 1 1
node 4 2 1 1
node 5 3 1 1
node 6 3 0 2
node 7 1 0 2
gene 1 1 6 -0.58197 0 1 -0.58197 1
gene 2 2 6 -0.595218 0 2 -0.595218 1
gene 2 3 6 0.632034 0 3 0.632034 1
gene 1 4 6 0.764989 0 4 0.764989 1
gene 3 5 6 -0.299891 0 5 -0.299891 1
gene 1 1 7 0.773273 0 6 0.773273 1
gene 3 2 7 -0.130993 0 7 -0.130993 1
gene 2 3 7 0.0655494 0 8 0.0655494 1
gene 3 4 7 -0.0594695 0 9 -0.0594695 1
gene 1 5 7 -0.820161 0 10 -0.820161 1
gene 1 6 7 -0.0904572 0 11 0 1
genomeend 14

/* Organism #15 Fitness: 69 Error: 0 */
genomestart 15
trait 1 0.1 0 0 0 0 0 0 0 
trait 2 0.2 0 0 0 0 0 0 0 
trait 3 0.3 0 0 0 0 0 0 0 
node 1 1 1 3
node 2 3 1 1
node 3 3 1 1
node 4 3 1 1
node 5 2 1 1
node 6 1 0 2
node 7 3 0 2
gene 1 1 6 0.623061 0 1 0.623061 1
gene 2 2 6 0.563598 0 2 0.563598 1
gene 3 3 6 0.179125 0 3 0.179125 1
gene 3 4 6 -0.280941 0 4 -0.280941 1
gene 3 5 6 -0.832416 0 5 -0.832416 1
gene 3 1 7 0.281884 0 6 0.281884 1
gene 2 2 7 -0.0558694 0 7 -0.0558694 1
gene 3 3 7 -0.00971306 0 8 -0.00971306 1
gene 3 4 7 0.271353 0 9 0.271353 1
gene 2 5 7 0.6312 0 10 0.6312 1
genomeend 15

/* Organism #16 Fitness: 4 Error: 0 */
genomestart 16
trait 1 0.1 0 0 0 0 0 0 0 
trait 2 0.2 0 0 0 0 0 0 0 
trait 3 0.3 0 0 0 0 0 0 0 
node 1 2 1 3
node 2 3 1 1
node 3 2 1 1
node 4 1 1 1
node 5 2 1 1
node 6 3 0 2
node 7 1 0 2
gene 3 1 6 -0.425644 0 1 -0.425644 1
gene 1 2 6 0.0749212 0 2 0.0749212 1
gene 3 3 6 0.142784 0 3 0.142784 1
gene 1 4 6 -0.0646821 0 4 -0.0646821 1
gene 2 5 6 -0.894746 0 5 -0.894746 1
gene 1 1 7 0.675124 0 6 0.675124 1
gene 3 2 7 -0.743127 0 7 -0.743127 1
gene 2 3 7 0.631613 0 8 0.631613 1
gene 1 4 7 0.199262 0 9 0.199262 1
gene 1 5 7 0.244926 0 10 0.244926 1
genomeend 16

/* Organism #17 Fitness: 5 Error: 0 */
genomestart 17
trait 1 0.1 0 0 0 0 0 0 0 
trait 2 0.2 0 0 0 0 0 0 0 
trait 3 0.3 0 0 0 0 0 0 0 
node 1 3 1 3
node 2 2 1 1
node 3 1 1 1
node 4 1 1 1
node 5 3 1 1
node 6 2 0 2
node 7 2 0 2
gene 1 1 6 -0.386498 0 1 -0.386498 1
gene 3 2 6 -0.554961 0 2 -0.554961 1
gene 2 3 6 0.278847 0 3 0.278847 1
gene 3 4 6 -0.87728 0 4 -0.87728 1
gene 3 5 6 0.636291 0 5 0.636291 1
gene 2 1 7 0.337801 0 6 0.337801 1
gene 3 2 7 -0.794967 0 7 -0.794967 1
gene 3 3 7 0.98398 0 8 0.98398 1
gene 2 4 7 0.0838142 0 9 0.0838142 1
gene 1 5 7 0.843756 0 10 0.843756 1
genomeend 17

/* Organism #18 Fitness: 4 Error: 0 */
genomestart 18
trait 1 0.1 0 0 0 0 0 0 0 
trait 2 0.2 0 0 0 0 0 0 0 
trait 3 0.3 0 0 0 0 0 0 0 
node 1 2 1 3
node 2 3 1 1
node 3 3 1 1
node 4 1 1 1
node 5 3 1 1
node 6 3 0 2
node 7 3 0 2
gene 1 1 6 -0.581219 0 1 -0.581219 1
gene 1 2 6 -0.0845216 0 2 -0.0845216 1
gene 2 3 6 0.625695 0 3 0.625695 1
gene 3 4 6 -0.293008 0 4 -0.293008 1
gene 1 5 6 0.578315 0 5 0.578315 1
gene 1 1 7 -0.112952 0 6 -0.112952 1
gene 3 2 7 -0.365077 0 7 -0.365077 1
gene 1 3 7 1.44375 0 8 1.44375 1
gene 2 4 7 -0.727448 0 9 -0.727448 1
gene 1 5 7 0.615194 0 10 0.615194 1
genomeend 18

/* Organism #19 Fitness: 7 Error: 0 */
genomestart 19
trait 1 0.1 0 0 0 0 0 0 0 
trait 2 0.2 0 0 0 0 0 0 0 
trait 3 0.3 0 0 0 0 0 0 0 
node 1 2 1 3
node 2 3 1 1
node 3 1 1 1
node 4 3 1 1
node 5 3 1 1
node 6 2 0 2
node 7 1 0 2
gene 1 1 6 0.300083 0 1 0.300083 1
gene 2 2 6 -1.13175 0 2 -1.13175 1
gene 1 3 6 -1.71549 0 3 -1.71549 1
gene 1 4 6 0.700799 0 4 0.700799 1
gene 3 5 6 -0.482621 0 5 -0.482621 1
gene 3 1 7 1.29703 0 6 1.29703 1
gene 1 2 7 -0.534253 0 7 -0.534253 1
gene 2 3 7 0.926696 0 8 0.926696 1
gene 2 4 7 0.54522 0 9 0.54522 1
gene 1 5 7 0.541651 0 10 0.541651 1
genomeend 19

/* Organism #20 Fitness: 16 Error: 0 */
genomestart 20
trait 1 0.1 0 0 0 0 0 0 0 
trait 2 0.2 0 0 0 0 0 0 0 
trait 3 0.3 0 0 0 0 0 0 0 
node 1 1 1 3
node 2 1 1 1
node 3 1 1 1
node 4 2 1 1
node 5 3 1 1
node 6 1 0 2
node 7 2 0 2
gene 1 1 6 0.962715 0 1 0.962715 1
gene 1 2 6 -0.311445 0 2 -0.311445 1
gene 2 3 6 0.591425 0 3 0.591425 1
gene 2 4 6 0.483361 0 4 0.483361 1
gene 3 5 6 0.736419 0 5 0.736419 1
gene 1 1 7 0.332287 0 6 0.332287 1
gene 3 2 7 -0.624932 0 7 -0.624932 1
gene 2 3 7 -0.148337 0 8 -0.148337 1
gene 1 4 7 -0.0866666 0 9 -0.0866666 1
gene 2 5 7 0.794825 0 10 0.794825 1
genomeend 20

/* Organism #21 Fitness: 18 Error: 0 */
genomestart 21
trait 1 0.1 0 0 0 0 0 0 0 
trait 2 0.2 0 0 0 0 0 0 0 
trait 3 0.3 0 0 0 0 0 0 0 
node 1 1 1 3
node 2 2 1 1
node 3 2 1 1
node 4 3 1 1
node 5 3 1 1
node 6 1 0 2
node 7 2 0 2
gene 2 1 6 0.909373 0 1 0.909373 1
gene 1 2 6 0.452166 0 2 0.452166 1
gene 2 3 6 -0.151103 0 3 -0.151103 1
gene 3 4 6 0.30645 0 4 0.30645 1
gene 2 5 6 -0.406681 0 5 -0.406681 1
gene 3 1 7 0.653029 0 6 0.653029 1
gene 3 2 7 -0.222383 0 7 -0.222383 1
gene 2 3 7 -0.404565 0 8 -0.404565 1
gene 3 4 7 -0.455059 0 9 -0.455059 1
gene 2 5 7 0.50897 0 10 0.50897 1
genomeend 21

/* Organism #22 Fitness: 12 Error: 0 */
genomestart 22
trait 1 0.1 0 0 0 0 0 0 0 
trait 2 0.2 0 0 0 0 0 0 0 
trait 3 0.3 0 0 0 0 0 0 0 
node 1 1 1 3
node 2 1 1 1
node 3 2 1 1
node 4 1 1 1
node 5 1 1 1
node 6 3 0 2
node 7 2 0 2
gene 3 1 6 -0.575685 0 1 -0.575685 1
gene 2 2 6 0.918364 0 2 0.918364 1
gene 3 3 6 -0.970573 0 3 -0.970573 1
gene 2 4 6 1.39088 0 4 1.39088 1
gene 1 5 6 1.14213 0 5 1.14213 1
gene 2 1 7 -0.102223 0 6 -0.102223 1
gene 3 2 7 -0.951697 0 7 -0.951697 1
gene 3 3 7 0.526035 0 8 0.526035 1
gene 1 4 7 -0.304961 0 9 -0.304961 1
gene 3 5 7 0.188858 0 10 0.188858 1
genomeend 22

/* Organism #23 Fitness: 17 Error: 0 */
genomestart 23
trait 1 0.1 0 0 0 0 0 0 0 
trait 2 0.2 0 0 0 0 0 0 0 
trait 3 0.3 0 0 0 0 0 0 0 
node 1 1 1 3
node 2 3 1 1
node 3 3 1 1
node 4 2 1 1
node 5 3 1 1
node 6 1 0 2
node 7 2 0 2
gene 3 1 6 0.9693 0 1 0.9693 1
gene 3 2 6 0.308707 0 2 0.308707 1
gene 2 3 6 -0.918097 0 3 -0.918097 1
gene 2 4 6 -0.0839392 0 4 -0.0839392 1
gene 2 5 6 0.850368 0 5 0.850368 1
gene 1 1 7 0.529202 0 6 0.529202 1
gene 3 2 7 0.408791 0 7 0.408791 1
gene 1 3 7 1.02075 0 8 1.02075 1
gene 3 4 7 -0.614078 0 9 -0.614078 1
gene 1 5 7 1.23517 0 10 1.23517 1
genomeend 23

/* Organism #24 Fitness: 13 Error: 0 */
genomestart 24
trait 1 0.1 0 0 0 0 0 0 0 
trait 2 0.2 0 0 0 0 0 0 0 
trait 3 0.3 0 0 0 0 0 0 0 
node 1 1 1 3
node 2 1 1 1
node 3 3 1 1
node 4 3 1 1
node 5 3 1 1
node 6 2 0 2
node 7 3 0 2
gene 1 1 6 0.549663 0 1 0.549663 1
gene 2 2 6 0.319092 0 2 0.319092 1
gene 2 3 6 -0.58513 0 3 -0.58513 1
gene 3 4 6 -0.198096 0 4 -0.198096 1
gene 1 5 6 -0.032673 0 5 -0.032673 1
gene 2 1 7 -0.109528 0 6 -0.109528 1
gene 3 2 7 0.0283409 0 7 0.0283409 1
gene 2 3 7 -0.129193 0 8 -0.129193 1
gene 3 4 7 0.424177 0 9 0.424177 1
gene 2 5 7 -0.686034 0 10 -0.686034 1
gene 1 6 7 -0.0904572 0 11 0 1
genomeend 24

/* Organism #25 Fitness: 11 Error: 0 */
genomestart 25
trait 1 0 0.864245 0 0 0 0 0.974875 0.317599 
trait 2 0.2 0 0 0 0 0 0 0 
trait 3 0.3 0 0 0 0 0 0 0 
node 1 1 1 3
node 2 2 1 1
node 3 3 1 1
node 4 2 1 1
node 5 3 1 1
node 6 1 0 2
node 7 2 0 2
gene 1 1 6 0.32776 0 1 0.32776 1
gene 2 2 6 0.270931 0 2 0.270931 1
gene 1 3 6 -0.214582 0 3 -0.214582 1
gene 1 4 6 -0.449765 0 4 -0.449765 1
gene 1 5 6 -0.0951588 0 5 -0.0951588 1
gene 1 1 7 0.688965 0 6 0.688965 1
gene 2 2 7 0.143606 0 7 0.143606 1
gene 3 3 7 -0.434752 0 8 -0.434752 1
gene 2 4 7 0.425346 0 9 0.425346 1
gene 1 5 7 -0.251959 0 10 -0.251959 1
genomeend 25

/* Organism #26 Fitness: 12 Error: 0 */
genomestart 26
trait 1 0.1 0 0 0 0 0 0 0 
trait 2 0.2 0 0 0 0 0 0 0 
trait 3 0.3 0 0 0 0 0 0 0 
node 1 1 1 3
node 2 2 1 1
node 3 3 1 1
node 4 2 1 1
node 5 2 1 1
node 6 1 0 2
node 7 1 0 2
gene 2 1 6 -0.495396 0 1 -0.495396 1
gene 1 2 6 0.755517 0 2 0.755517 1
gene 2 3 6 -0.997251 0 3 -0.997251 1
gene 2 4 6 0.517259 0 4 0.517259 1
gene 2 5 6 -0.762164 0 5 -0.762164 1
gene 3 1 7 0.294158 0 6 0.294158 1
gene 2 2 7 -0.293286 0 7 -0.293286 1
gene 3 3 7 -0.922638 0 8 -0.922638 1
gene 2 4 7 0.058301 0 9 0.058301 1
gene 3 5 7 -0.376429 0 10 -0.376429 1
genomeend 26

/* Organism #27 Fitness: 11 Error: 0 */
genomestart 27
trait 1 0.1 0 0 0 0 0 0 0 
trait 2 0.2 0 0 0 0 0 0 0 
trait 3 0.3 0 0 0 0 0 0 0 
node 1 2 1 3
node 2 3 1 1
node 3 3 1 1
node 4 2 1 1
node 5 2 1 1
node 6 1 0 2
node 7 1 0 2
gene 2 1 6 -0.700923 0 1 -0.700923 1
gene 2 2 6 0.336212 0 2 0.336212 1
gene 2 3 6 0.151353 0 3 0.151353 1
gene 1 4 6 0.949943 0 4 0.949943 1
gene 3 5 6 0.949854 0 5 0.949854 1
gene 3 1 7 0.782944 0 6 0.782944 1
gene 3 2 7 -0.200356 0 7 -0.200356 1
gene 3 3 7 -0.254472 0 8 -0.254472 1
gene 2 4 7 -0.654115 0 9 -0.654115 1
gene 1 5 7 -0.826809 0 10 -0.826809 1
genomeend 27

/* Organism #28 Fitness: 15 Error: 0 */
genomestart 28
trait 1 0.1 0 0 0 0 0 0 0 
trait 2 0.2 0 0 0 0 0 0 0 
trait 3 0.3 0 0 0 0 0 0 0 
node 1 2 1 3
node 2 2 1 1
node 3 2 1 1
node 4 3 1 1
node 5 3 1 1
node 6 1 0 2
node 7 1 0 2
gene 3 1 6 1.25553 0 1 1.25553 1
gene 2 2 6 -1.31187 0 2 -1.31187 1
gene 3 3 6 -0.219098 0 3 -0.219098 1
gene 2 4 6 0.0780856 0 4 0.0780856 1
gene 2 5 6 -0.726036 0 5 -0.726036 1
gene 2 1 7 -0.706008 0 6 -0.706008 1
gene 3 2 7 -0.288962 0 7 -0.288962 1
gene 3 3 7 -0.893751 0 8 -0.893751 1
gene 1 4 7 1.42699 0 9 1.42699 1
gene 1 5 7 0.471715 0 10 0.471715 1
genomeend 28

/* Organism #29 Fitness: 7 Error: 0 */
genomestart 29
trait 1 0.1 0 0 0 0 0 0 0 
trait 2 0.2 0 0 0 0 0 0 0 
trait 3 0.3 0 0 0 0 0 0 0 
node 1 3 1 3
node 2 3 1 1
node 3 3 1 1
node 4 1 1 1
node 5 1 1 1
node 6 2 0 2
node 7 2 0 2
gene 3 1 6 0.220307 0 1 0.220307 1
gene 1 2 6 0.0214981 0 2 0.0214981 1
gene 1 3 6 -0.356752 0 3 -0.356752 1
gene 2 4 6 0.346234 0 4 0.346234 1
gene 3 5 6 0.205588 0 5 0.205588 1
gene 2 1 7 0.689947 0 6 0.689947 1
gene 3 2 7 -0.208328 0 7 -0.208328 1
gene 2 3 7 0.0966936 0 8 0.0966936 1
gene 2 4 7 0.848166 0 9 0.848166 1
gene 3 5 7 0.467651 0 10 0.467651 1
genomeend 29

/* Organism #30 Fitness: 12 Error: 0 */
genomestart 30
trait 1 0.1 0 0 0 0 0 0 0 
trait 2 0.2 0 0 0 0 0 0 0 
trait 3 0.3 0 0 0 0 0 0 0 
node 1 1 1 3
node 2 3 1 1
node 3 2 1 1
node 4 2 1 1
node 5 1 1 1
node 6 1 0 2
node 7 1 0 2
gene 2 1 6 0.715085 0 1 0.715085 1
gene 3 2 6 0.890285 0 2 0.890285 1
gene 3 3 6 -0.852952 0 3 -0.852952 1
gene 2 4 6 -0.86189 0 4 -0.86189 1
gene 2 5 6 0.993726 0 5 0.993726 1
gene 2 1 7 0.942936 0 6 0.942936 1
gene 1 2 7 0.0555755 0 7 0.0555755 1
gene 1 3 7 -0.253756 0 8 -0.253756 1
gene 3 4 7 -0.632063 0 9 -0.632063 1
gene 2 5 7 -0.345056 0 10 -0.345056 1
genomeend 30

/* Organism #31 Fitness: 4 Error: 0 */
genomestart 31
trait 1 0.1 0 0 0 0 0 0 0 
trait 2 0.2 0 0 0 0 0 0 0 
trait 3 0.3 0 0 0 0 0 0 0 
node 1 2 1 3
node 2 3 1 1
node 3 1 1 1
node 4 1 1 1
node 5 1 1 1
node 6 1 0 2
node 7 2 0 2
gene 3 1 6 0.179013 0 1 0.179013 1
gene 3 2 6 -0.383209 0 2 -0.383209 1
gene 1 3 6 0.324573 0 3 0.324573 1
gene 3 4 6 -0.346678 0 4 -0.346678 1
gene 2 5 6 -0.292439 0 5 -0.292439 1
gene 3 1 7 0.342527 0 6 0.342527 1
gene 1 2 7 0.362969 0 7 0.362969 1
gene 1 3 7 -0.0481383 0 8 -0.0481383 1
gene 2 4 7 0.223971 0 9 0.223971 1
gene 2 5 7 0.312206 0 10 0.312206 1
gene 1 6 6 -0.0647911 1 13 -0.0647911 1
genomeend 31

/* Organism #32 Fitness: 6 Error: 0 */
genomestart 32
trait 1 0.1 0 0 0 0 0 0 0 
trait 2 0.2 0 0 0 0 0 0 0 
trait 3 0.3 0 0 0 0 0 0 0 
node 1 2 1 3
node 2 3 1 1
node 3 3 1 1
node 4 1 1 1
node 5 3 1 1
node 6 2 0 2
node 7 3 0 2
gene 3 1 6 -0.676299 0 1 -0.676299 1
gene 1 2 6 -0.935107 0 2 -0.935107 1
gene 2 3 6 -0.874729 0 3 -0.874729 1
gene 1 4 6 1.02164 0 4 1.02164 1
gene 2 5 6 0.515805 0 5 0.515805 1
gene 1 1 7 0.064723 0 6 0.064723 1
gene 3 2 7 -0.177732 0 7 -0.177732 1
gene 1 3 7 0.48938 0 8 0.48938 1
gene 1 4 7 0.33302 0 9 0.33302 1
gene 1 5 7 0.268446 0 10 0.268446 1
genomeend 32

/* Organism #33 Fitness: 2 Error: 0 */
genomestart 33
trait 1 0.1 0 0 0 0 0 0 0 
trait 2 0.2 0 0 0 0 0 0 0 
trait 3 0.3 0 0 0 0 0 0 0 
node 1 1 1 3
node 2 2 1 1
node 3 3 1 1
node 4 2 1 1
node 5 1 1 1
node 6 3 0 2
node 7 1 0 2
gene 1 1 6 0.134327 0 1 0.134327 1
gene 1 2 6 0.0602467 0 2 0.0602467 1
gene 1 3 6 0.0397548 0 3 0.0397548 1
gene 2 4 6 0.149718 0 4 0.149718 1
gene 1 5 6 -0.784474 0 5 -0.784474 1
gene 1 1 7 -0.685684 0 6 -0.685684 1
gene 2 2 7 0.0233063 0 7 0.0233063 1
gene 2 3 7 -0.0339521 0 8 -0.0339521 1
gene 1 4 7 0.547623 0 9 0.547623 1
gene 1 5 7 0.104114 0 10 0.104114 1
genomeend 33

/* Organism #34 Fitness: 4 Error: 0 */
genomestart 34
trait 1 0.1 0 0 0 0 0 0 0 
trait 2 0.2 0 0 0 0.712218 0 0 0 
trait 3 0.3 0 0 0 0 0 0 0 
node 1 2 1 3
node 2 3 1 1
node 3 2 1 1
node 4 3 1 1
node 5 3 1 1
node 6 1 0 2
node 7 1 0 2
gene 3 1 6 -0.366947 0 1 -0.366947 1
gene 2 2 6 -1.7181 0 2 -1.7181 1
gene 1 3 6 0.185977 0 3 0.185977 1
gene 1 4 6 1.1587 0 4 1.1587 1
gene 3 5 6 0.496836 0 5 0.496836 1
gene 2 1 7 0.187269 0 6 0.187269 1
gene 3 2 7 0.520424 0 7 0.520424 1
gene 1 3 7 -0.863865 0 8 -0.863865 1
gene 2 4 7 -0.488971 0 9 -0.488971 1
gene 3 5 7 0.114289 0 10 0.114289 1
genomeend 34

/* Organism #35 Fitness: 14 Error: 0 */
genomestart 35
trait 1 0.1 0 0 0 0 0 0 0 
trait 2 0.2 0 0 0 0 0 0 0 
trait 3 0.3 0 0 0 0 0 0 0 
node 1 1 1 3
node 2 1 1 1
node 3 3 1 1
node 4 3 1 1
node 5 3 1 1
node 6 2 0 2
node 7 3 0 2
gene 1 1 6 0.563308 0 1 0.563308 1
gene 2 2 6 0.257046 0 2 0.257046 1
gene 1 3 6 -0.686552 0 3 -0.686552 1
gene 2 4 6 -0.45684 0 4 -0.45684 1
gene 1 5 6 0.0759986 0 5 0.0759986 1
gene 2 1 7 0.559857 0 6 0.559857 1
gene 1 2 7 -0.121752 0 7 -0.121752 1
gene 1 3 7 -0.0695458 0 8 -0.0695458 1
gene 3 4 7 0.297468 0 9 0.297468 1
gene 2 5 7 -0.674605 0 10 -0.674605 1
gene 1 7 6 -0.191787 0 14 -0.191787 1
genomeend 35

/* Organism #36 Fitness: 1 Error: 0 */
genomestart 36
trait 1 0.1 0 0 0 0 0 0 0 
trait 2 0.2 0 0 0 0 0 0 0 
trait 3 0.3 0 0 0 0 0 0 0 
node 1 1 1 3
node 2 1 1 1
node 3 2 1 1
node 4 3 1 1
node 5 3 1 1
node 6 2 0 2
node 7 1 0 2
gene 1 1 6 0.383549 0 1 0.383549 1
gene 3 2 6 -0.773256 0 2 -0.773256 1
gene 3 3 6 -0.694359 0 3 -0.694359 1
gene 2 4 6 1.11864 0 4 1.11864 1
gene 2 5 6 0.0967255 0 5 0.0967255 1
gene 2 1 7 -0.0232201 0 6 -0.0232201 1
gene 3 2 7 -0.758543 0 7 -0.758543 1
gene 1 3 7 0.712143 0 8 0.712143 1
gene 2 4 7 0.394883 0 9 0.394883 1
gene 1 5 7 1.20615 0 10 1.20615 1
genomeend 36

/* Organism #37 Fitness: 5 Error: 0 */
genomestart 37
trait 1 0.1 0 0 0 0 0 0 0 
trait 2 0.2 0 0 0 0 0 0 0 
trait 3 0.3 0 0 0 0 0 0 0 
node 1 2 1 3
node 2 3 1 1
node 3 1 1 1
node 4 1 1 1
node 5 3 1 1
node 6 2 0 2
node 7 3 0 2
gene 2 1 6 -0.909428 0 1 -0.909428 1
gene 1 2 6 -0.230245 0 2 -0.230245 1
gene 3 3 6 -0.974393 0 3 -0.974393 1
gene 3 4 6 -0.127551 0 4 -0.127551 1
gene 3 5 6 -0.908299 0 5 -0.908299 1
gene 2 1 7 -0.852125 0 6 -0.852125 1
gene 1 2 7 -0.423619 0 7 -0.423619 1
gene 3 3 7 0.610674 0 8 0.610674 1
gene 3 4 7 0.902273 0 9 0.902273 1
gene 1 5 7 0.613449 0 10 0.613449 1
gene 1 6 7 -0.0904572 0 11 0 1
genomeend 37

/* Organism #38 Fitness: 2 Error: 0 */
genomestart 38
trait 1 0.1 0 0 0 0 0 0 0 
trait 2 0.2 0 0 0 0 0 0 0 
trait 3 0.3 0 0 0 0 0 0 0 
node 1 1 1 3
node 2 3 1 1
node 3 2 1 1
node 4 2 1 1
node 5 1 1 1
node 6 1 0 2
node 7 1 0 2
gene 3 1 6 -0.427437 0 1 -0.427437 1
gene 2 2 6 -0.623109 0 2 -0.623109 1
gene 3 3 6 0.703984 0 3 0.703984 1
gene 2 4 6 -0.196643 0 4 -0.196643 1
gene 1 5 6 0.15025 0 5 0.15025 1
gene 3 1 7 0.12535 0 6 0.12535 1
gene 1 2 7 0.230428 0 7 0.230428 1
gene 1 3 7 0.188632 0 8 0.188632 1
gene 3 4 7 -0.206422 0 9 -0.206422 1
gene 2 5 7 0.262142 0 10 0.262142 1
genomeend 38

/* Organism #39 Fitness: 14 Error: 0 */
genomestart 39
trait 1 0.1 0 0 0 0 0 0 0 
trait 2 0.2 0 0 0 0 0 0 0 
trait 3 0.3 0 0 0 0 0 0 0 
node 1 2 1 3
node 2 3 1 1
node 3 1 1 1
node 4 2 1 1
node 5 3 1 1
node 6 2 0 2
node 7 3 0 2
gene 3 1 6 -0.32176 0 1 -0.32176 1
gene 1 2 6 -0.0614544 0 2 -0.0614544 1
gene 2 3 6 -0.313854 0 3 -0.313854 1
gene 3 4 6 -1.09622 0 4 -1.09622 1
gene 3 5 6 -0.299713 0 5 -0.299713 1
gene 3 1 7 -1.04277 0 6 -1.04277 1
gene 2 2 7 0.452797 0 7 0.452797 1
gene 2 3 7 -0.484932 0 8 -0.484932 1
gene 2 4 7 -0.888811 0 9 -0.888811 1
gene 2 5 7 1.44189 0 10 1.44189 1
genomeend 39

/* Organism #40 Fitness: 12 Error: 0 */
genomestart 40
trait 1 0.1 0 0 0 0 0 0 0 
trait 2 0.2 0 0 0 0 0 0 0 
trait 3 0.3 0 0 0 0 0 0 0 
node 1 3 1 3
node 2 3 1 1
node 3 2 1 1
node 4 2 1 1
node 5 2 1 1
node 6 2 0 2
node 7 2 0 2
gene 1 1 6 0.800966 0 1 0.800966 1
gene 3 2 6 -0.347806 0 2 -0.347806 1
gene 3 3 6 -0.693846 0 3 -0.693846 1
gene 1 4 6 0.281505 0 4 0.281505 1
gene 1 5 6 0.0227401 0 5 0.0227401 1
gene 2 1 7 -0.335068 0 6 -0.335068 1
gene 2 2 7 0.913222 0 7 0.913222 1
gene 2 3 7 -0.15726 0 8 -0.15726 1
gene 1 4 7 -0.949795 0 9 -0.949795 1
gene 3 5 7 -0.75974 0 10 -0.75974 1
genomeend 40

/* Organism #41 Fitness: 3 Error: 0 */
genomestart 41
trait 1 0.1 0 0 0 0 0 0 0 
trait 2 0.2 0 0 0 0 0 0 0 
trait 3 0.3 0 0 0 0 0 0 0 
node 1 3 1 3
node 2 1 1 1
node 3 2 1 1
node 4 1 1 1
node 5 3 1 1
node 6 3 0 2
node 7 3 0 2
gene 1 1 6 0.0380948 0 1 0.0380948 1
gene 1 2 6 -0.0241677 0 2 -0.0241677 1
gene 3 3 6 0.839926 0 3 0.839926 1
gene 2 4 6 0.617521 0 4 0.617521 1
gene 1 5 6 -0.596718 0 5 -0.596718 1
gene 1 1 7 -0.431244 0 6 -0.431244 1
gene 3 2 7 -0.708031 0 7 -0.708031 1
gene 2 3 7 -0.843443 0 8 -0.843443 1
gene 3 4 7 0.233862 0 9 0.233862 1
gene 2 5 7 0.394946 0 10 0.394946 1
genomeend 41

/* Organism #42 Fitness: 4 Error: 0 */
genomestart 42
trait 1 0.1 0 0 0 0 0 0 0 
trait 2 0.2 0 0 0 0 0 0 0 
trait 3 0.3 0 0 0 0 0 0 0 
node 1 2 1 3
node 2 1 1 1
node 3 3 1 1
node 4 3 1 1
node 5 3 1 1
node 6 3 0 2
node 7 2 0 2
gene 2 1 6 -0.337003 0 1 -0.337003 1
gene 1 2 6 0.0411726 0 2 0.0411726 1
gene 3 3 6 -1.63197 0 3 -1.63197 1
gene 2 4 6 -0.604562 0 4 -0.604562 1
gene 3 5 6 1.09871 0 5 1.09871 1
gene 3 1 7 0.801814 0 6 0.801814 1
gene 1 2 7 -0.863372 0 7 -0.863372 1
gene 2 3 7 0.343894 0 8 0.343894 1
gene 2 4 7 -0.518015 0 9 -0.518015 1
gene 1 5 7 0.902364 0 10 0.902364 1
genomeend 42

/* Organism #43 Fitness: 15 Error: 0 */
genomestart 43
trait 1 0.1 0 0 0 0 0 0 0 
trait 2 0.2 0 0 0 0 0 0 0 
trait 3 0.3 0 0 0 0 0 0 0 
node 1 2 1 3
node 2 2 1 1
node 3 2 1 1
node 4 2 1 1
node 5 2 1 1
node 6 3 0 2
node 7 3 0 2
gene 1 1 6 -0.421246 0 1 -0.421246 1
gene 3 2 6 0.377596 0 2 0.377596 1
gene 2 3 6 -0.671116 0 3 -0.671116 1
gene 1 4 6 -0.699436 0 4 -0.699436 1
gene 3 5 6 0.520173 0 5 0.520173 1
gene 1 1 7 -0.831833 0 6 -0.831833 1
gene 1 2 7 0.182808 0 7 0.182808 1
gene 2 3 7 -0.390331 0 8 -0.390331 1
gene 2 4 7 0.724964 0 9 0.724964 1
gene 3 5 7 0.679482 0 10 0.679482 1
gene 1 6 7 -0.0904572 0 11 0 1
genomeend 43

/* Organism #44 Fitness: 4 Error: 0 */
genomestart 44
trait 1 0.1 0 0 0 0 0 0 0 
trait 2 0.2 0 0 0 0 0 0 0 
trait 3 0.3 0 0 0 0 0 0 0 
node 1 2 1 3
node 2 3 1 1
node 3 2 1 1
node 4 2 1 1
node 5 3 1 1
node 6 3 0 2
node 7 2 0 2
gene 1 1 6 0.951781 0 1 0.951781 1
gene 1 2 6 0.60449 0 2 0.60449 1
gene 1 3 6 0.0854544 0 3 0.0854544 1
gene 2 4 6 0.832966 0 4 0.832966 1
gene 2 5 6 -0.778031 0 5 -0.778031 1
gene 3 1 7 -0.694968 0 6 -0.694968 1
gene 2 2 7 -1.08135 0 7 -1.08135 1
gene 3 3 7 -0.326546 0 8 -0.326546 1
gene 1 4 7 -1.20821 0 9 -1.20821 1
gene 3 5 7 -0.278996 0 10 -0.278996 1
genomeend 44

/* Organism #45 Fitness: 3 Error: 0 */
genomestart 45
trait 1 0.1 0 0 0 0 0 0 0 
trait 2 0.2 0 0 0 0 0 0 0 
trait 3 0.3 0 0 0 0 0 0 0 
node 1 2 1 3
node 2 3 1 1
node 3 2 1 1
node 4 3 1 1
node 5 3 1 1
node 6 1 0 2
node 7 1 0 2
gene 3 1 6 0.440521 0 1 0.440521 1
gene 2 2 6 -0.977761 0 2 -0.977761 1
gene 1 3 6 0.0955271 0 3 0.0955271 1
gene 1 4 6 0.101254 0 4 0.101254 1
gene 3 5 6 0.238214 0 5 0.238214 1
gene 2 1 7 0.187269 0 6 0.187269 1
gene 3 2 7 -0.787161 0 7 -0.787161 1
gene 1 3 7 -0.249571 0 8 -0.249571 1
gene 2 4 7 -0.112022 0 9 -0.112022 1
gene 3 5 7 -0.217753 0 10 -0.217753 1
genomeend 45

/* Organism #46 Fitness: 4 Error: 0 */
genomestart 46
trait 1 0.1 0 0 0 0 0 0 0 
trait 2 0.2 0 0 0 0 0 0 0 
trait 3 0.3 0 0 0 0 0 0 0 
node 1 1 1 3
node 2 1 1 1
node 3 3 1 1
node 4 2 1 1
node 5 3 1 1
node 6 2 0 2
node 7 2 0 2
gene 3 1 6 0.917335 0 1 0.917335 1
gene 2 2 6 0.401818 0 2 0.401818 1
gene 1 3 6 -1.86614 0 3 -1.86614 1
gene 1 4 6 1.37434 0 4 1.37434 1
gene 3 5 6 -0.879291 0 5 -0.879291 1
gene 1 1 7 0.291192 0 6 0.291192 1
gene 3 2 7 -0.596261 0 7 -0.596261 1
gene 2 3 7 -0.7591 0 8 -0.7591 1
gene 2 4 7 -0.123966 0 9 -0.123966 1
gene 3 5 7 -0.17929 0 10 -0.17929 1
genomeend 46

/* Organism #47 Fitness: 3 Error: 0 */
genomestart 47
trait 1 0.1 0 0 0 0 0 0 0 
trait 2 0.2 0 0 0 0 0 0 0 
trait 3 0.3 0 0 0 0 0 0 0 
node 1 2 1 3
node 2 1 1 1
node 3 3 1 1
node 4 1 1 1
node 5 2 1 1
node 6 3 0 2
node 7 3 0 2
gene 3 1 6 -0.976837 0 1 -0.976837 1
gene 2 2 6 -0.88458 0 2 -0.88458 1
gene 1 3 6 -0.0934882 0 3 -0.0934882 1
gene 2 4 6 -0.0763071 0 4 -0.0763071 1
gene 3 5 6 -0.155883 0 5 -0.155883 1
gene 1 1 7 -1.2032 0 6 -1.2032 1
gene 3 2 7 0.21831 0 7 0.21831 1
gene 3 3 7 0.412687 0 8 0.412687 1
gene 2 4 7 0.813 0 9 0.813 1
gene 1 5 7 0.395193 0 10 0.395193 1
genomeend 47

/* Organism #48 Fitness: 14 Error: 0 */
genomestart 48
trait 1 0.1 0 0 0 0 0 0 0 
trait 2 0.2 0 0 0 0 0 0 0 
trait 3 0.3 0 0 0 0 0 0 0 
node 1 3 1 3
node 2 1 1 1
node 3 1 1 1
node 4 2 1 1
node 5 3 1 1
node 6 2 0 2
node 7 2 0 2
gene 1 1 6 -0.815348 0 1 -0.815348 1
gene 2 2 6 -0.302902 0 2 -0.302902 1
gene 1 3 6 -0.823299 0 3 -0.823299 1
gene 3 4 6 0.399002 0 4 0.399002 1
gene 1 5 6 0.514598 0 5 0.514598 1
gene 3 1 7 -0.169336 0 6 -0.169336 1
gene 1 2 7 0.542804 0 7 0.542804 1
gene 3 3 7 -0.676413 0 8 -0.676413 1
gene 3 4 7 0.296156 0 9 0.296156 1
gene 3 5 7 0.994741 0 10 0.994741 1
gene 2 6 6 -0.136051 1 15 -0.136051 1
genomeend 48

/* Organism #49 Fitness: 14 Error: 0 */
genomestart 49
trait 1 0.1 0 0 0 0 0 0 0 
trait 2 0.2 0 0 0 0 0 0 0 
trait 3 0.3 0 0 0 0 0 0 0 
node 1 1 1 3
node 2 2 1 1
node 3 1 1 1
node 4 2 1 1
node 5 1 1 1
node 6 2 0 2
node 7 1 0 2
gene 1 1 6 0.943777 0 1 0.943777 1
gene 2 2 6 -0.0293787 0 2 -0.0293787 1
gene 3 3 6 0.108379 0 3 0.108379 1
gene 3 4 6 0.327592 0 4 0.327592 1
gene 3 5 6 0.617163 0 5 0.617163 1
gene 3 1 7 0.769083 0 6 0.769083 1
gene 3 2 7 0.518928 0 7 0.518928 1
gene 2 3 7 0.898663 0 8 0.898663 1
gene 3 4 7 0.725992 0 9 0.725992 1
gene 1 5 7 0.74702 0 10 0.74702 1
gene 1 6 7 -0.0904572 0 11 0 1
genomeend 49

/* Organism #50 Fitness: 15 Error: 0 */
genomestart 50
trait 1 0.1 0 0 0 0 0 0 0 
trait 2 0.2 0 0 0 0 0 0 0 
trait 3 0.3 0 0 0 0 0 0 0 
node 1 1 1 3
node 2 2 1 1
node 3 3 1 1
node 4 2 1 1
node 5 1 1 1
node 6 1 0 2
node 7 1 0 2
gene 2 1 6 0.0895847 0 1 0.0895847 1
gene 2 2 6 -0.352207 0 2 -0.352207 1
gene 1 3 6 0.00247675 0 3 0.00247675 1
gene 2 4 6 -0.357967 0 4 -0.357967 1
gene 3 5 6 -0.915449 0 5 -0.915449 1
gene 1 1 7 0.201691 0 6 0.201691 1
gene 1 2 7 -0.321124 0 7 -0.321124 1
gene 2 3 7 -0.57633 0 8 -0.57633 1
gene 2 4 7 -0.0775701 0 9 -0.0775701 1
gene 1 5 7 0.292206 0 10 0.292206 1
gene 1 7 6 -0.191787 0 14 0 1
genomeend 50

/* Organism #51 Fitness: 2 Error: 0 */
genomestart 51
trait 1 0.1 0 0 0 0 0 0 0 
trait 2 0.2 0 0 0 0 0 0 0 
trait 3 0.3 0 0 0 0 0 0 0 
node 1 2 1 3
node 2 2 1 1
node 3 2 1 1
node 4 1 1 1
node 5 3 1 1
node 6 1 0 2
node 7 3 0 2
gene 1 1 6 0.684451 0 1 0.684451 1
gene 1 2 6 -0.502651 0 2 -0.502651 1
gene 2 3 6 0.53141 0 3 0.53141 1
gene 3 4 6 0.456966 0 4 0.456966 1
gene 2 5 6 -0.26696 0 5 -0.26696 1
gene 1 1 7 0.267951 0 6 0.267951 1
gene 2 2 7 -0.0276295 0 7 -0.0276295 1
gene 2 3 7 -0.713269 0 8 -0.713269 1
gene 3 4 7 -0.650478 0 9 -0.650478 1
gene 1 5 7 0.819635 0 10 0.819635 1
gene 1 7 6 -0.191787 0 14 0 1
genomeend 51

/* Organism #52 Fitness: 15 Error: 0 */
genomestart 52
trait 1 0.1 0 0 0 0 0 0 0 
trait 2 0.2 0 0 0 0 0 0 0 
trait 3 0.3 0 0 0 0 0 0 0 
node 1 2 1 3
node 2 3 1 1
node 3 2 1 1
node 4 3 1 1
node 5 2 1 1
node 6 1 0 2
node 7 1 0 2
gene 1 1 6 -0.344026 0 1 -0.344026 1
gene 1 2 6 0.204697 0 2 0.204697 1
gene 2 3 6 -0.11874 0 3 -0.11874 1
gene 1 4 6 -0.646685 0 4 -0.646685 1
gene 2 5 6 0.0953877 0 5 0.0953877 1
gene 2 1 7 0.266913 0 6 0.266913 1
gene 2 2 7 -0.703919 0 7 -0.703919 1
gene 3 3 7 -0.746557 0 8 -0.746557 1
gene 3 4 7 0.113748 0 9 0.113748 1
gene 2 5 7 0.718493 0 10 0.718493 1
genomeend 52

/* Organism #53 Fitness: 6 Error: 0 */
genomestart 53
trait 1 0.1 0 0 0 0 0 0 0 
trait 2 0.2 0 0 0 0 0 0 0 
trait 3 0.3 0 0 0 0 0 0 0 
node 1 1 1 3
node 2 3 1 1
node 3 2 1 1
node 4 1 1 1
node 5 1 1 1
node 6 1 0 2
node 7 2 0 2
gene 2 1 6 -0.226861 0 1 -0.226861 1
gene 3 2 6 -0.106962 0 2 -0.106962 1
gene 2 3 6 -0.101478 0 3 -0.101478 1
gene 1 4 6 -0.250834 0 4 -0.250834 1
gene 1 5 6 -0.0317412 0 5 -0.0317412 1
gene 1 1 7 0.275044 0 6 0.275044 1
gene 2 2 7 0.100229 0 7 0.100229 1
gene 2 3 7 -0.270808 0 8 -0.270808 1
gene 2 4 7 -0.455197 0 9 -0.455197 1
gene 3 5 7 0.521932 0 10 0.521932 1
genomeend 53

/* Organism #54 Fitness: 12 Error: 0 */
genomestart 54
trait 1 0.1 0 0 0 0 0 0 0 
trait 2 0.2 0 0 0 0 0 0 0 
trait 3 0.3 0 0 0 0 0 0 0 
node 1 2 1 3
node 2 3 1 1
node 3 2 1 1
node 4 2 1 1
node 5 3 1 1
node 6 1 0 2
node 7 2 0 2
gene 3 1 6 1.05769 0 1 1.05769 1
gene 3 2 6 -0.829513 0 2 -0.829513 1
gene 3 3 6 0.66853 0 3 0.66853 1
gene 3 4 6 0.0573518 0 4 0.0573518 1
gene 1 5 6 -0.156373 0 5 -0.156373 1
gene 2 1 7 -0.486873 0 6 -0.486873 1
gene 2 2 7 0.736513 0 7 0.736513 1
gene 3 3 7 0.51372 0 8 0.51372 1
gene 1 4 7 0.481426 0 9 0.481426 1
gene 2 5 7 0.593266 0 10 0.593266 1
genomeend 54

/* Organism #55 Fitness: 7 Error: 0 */
genomestart 55
trait 1 0.1 0 0 0 0 0 0 0 
trait 2 0.2 0 0 0 0 0 0 0 
trait 3 0.3 0 0 0 0 0 0 0 
node 1 2 1 3
node 2 3 1 1
node 3 1 1 1
node 4 3 1 1
node 5 1 1 1
node 6 2 0 2
node 7 2 0 2
gene 2 1 6 0.630439 0 1 0.630439 1
gene 1 2 6 -1.03253 0 2 -1.03253 1
gene 1 3 6 1.19686 0 3 1.19686 1
gene 3 4 6 0.181889 0 4 0.181889 1
gene 2 5 6 -0.599074 0 5 -0.599074 1
gene 3 1 7 -1.40988 0 6 -1.40988 1
gene 1 2 7 -0.344602 0 7 -0.344602 1
gene 3 3 7 -0.524051 0 8 -0.524051 1
gene 3 4 7 0.248221 0 9 0.248221 1
gene 2 5 7 -0.723763 0 10 -0.723763 1
genomeend 55

/* Organism #56 Fitness: 35 Error: 0 */
genomestart 56
trait 1 0.1 0 0 0 0 0 0 0 
trait 2 0.2 0 0 0 0 0 0 0 
trait 3 0.3 0 0 0 0 0 0 0 
node 1 1 1 3
node 2 2 1 1
node 3 3 1 1
node 4 2 1 1
node 5 1 1 1
node 6 1 0 2
node 7 1 0 2
gene 1 1 6 -0.0106115 0 1 -0.0106115 1
gene 1 2 6 0.132698 0 2 0.132698 1
gene 1 3 6 -0.559233 0 3 -0.559233 1
gene 2 4 6 0.249706 0 4 0.249706 1
gene 3 5 6 -0.566853 0 5 -0.566853 1
gene 2 1 7 -0.0238753 0 6 -0.0238753 1
gene 1 2 7 -0.652155 0 7 -0.652155 1
gene 3 3 7 -0.68449 0 8 -0.68449 1
gene 2 4 7 0.718795 0 9 0.718795 1
gene 1 5 7 0.51969 0 10 0.51969 1
gene 3 7 7 0.597762 1 16 0.597762 1
genomeend 56

/* Organism #57 Fitness: 8 Error: 0 */
genomestart 57
trait 1 0.1 0 0 0 0 0 0 0 
trait 2 0.2 0 0 0 0 0 0 0 
trait 3 0.3 0 0 0 0 0 0 0 
node 1 3 1 3
node 2 1 1 1
node 3 1 1 1
node 4 2 1 1
node 5 3 1 1
node 6 1 0 2
node 7 3 0 2
gene 1 1 6 -0.314266 0 1 -0.314266 1
gene 3 2 6 -0.0855325 0 2 -0.0855325 1
gene 3 3 6 0.221132 0 3 0.221132 1
gene 2 4 6 0.345085 0 4 0.345085 1
gene 1 5 6 -0.121604 0 5 -0.121604 1
gene 3 1 7 0.254198 0 6 0.254198 1
gene 2 2 7 -0.315715 0 7 -0.315715 1
gene 1 3 7 0.207234 0 8 0.207234 1
gene 3 4 7 -0.822641 0 9 -0.822641 1
gene 2 5 7 -0.706405 0 10 -0.706405 1
genomeend 57

/* Organism #58 Fitness: 46 Error: 0 */
genomestart 58
trait 1 0.1 0 0 0 0 0 0 0 
trait 2 0.2 0 0 0 0 0 0 0 
trait 3 0.3 0 0 0 0 0 0 0 
node 1 2 1 3
node 2 3 1 1
node 3 2 1 1
node 4 2 1 1
node 5 1 1 1
node 6 1 0 2
node 7 3 0 2
gene 3 1 6 -0.013952 0 1 -0.013952 1
gene 3 2 6 0.472625 0 2 0.472625 1
gene 1 3 6 0.634806 0 3 0.634806 1
gene 2 4 6 -0.60586 0 4 -0.60586 1
gene 2 5 6 0.257853 0 5 0.257853 1
gene 1 1 7 0.612582 0 6 0.612582 1
gene 1 2 7 0.958083 0 7 0.958083 1
gene 1 3 7 -0.85148 0 8 -0.85148 1
gene 1 4 7 -0.927172 0 9 -0.927172 1
gene 1 5 7 0.848327 0 10 0.848327 1
gene 1 6 7 -0.0904572 0 11 0 1
genomeend 58

/* Organism #59 Fitness: 2 Error: 0 */
genomestart 59
trait 1 0.1 0 0 0 0 0 0 0 
trait 2 0.2 0 0 0 0 0 0 0 
trait 3 0.3 0 0 0 0 0 0 0 
node 1 1 1 3
node 2 3 1 1
node 3 2 1 1
node 4 3 1 1
node 5 2 1 1
node 6 1 0 2
node 7 3 0 2
gene 3 1 6 -0.607814 0 1 -0.607814 1
gene 3 2 6 -0.142313 0 2 -0.142313 1
gene 2 3 6 0.586431 0 3 0.586431 1
gene 2 4 6 -0.122498 0 4 -0.122498 1
gene 2 5 6 -0.897765 0 5 -0.897765 1
gene 1 1 7 0.146677 0 6 0.146677 1
gene 1 2 7 -0.417958 0 7 -0.417958 1
gene 1 3 7 1.47341 0 8 1.47341 1
gene 1 4 7 0.841064 0 9 0.841064 1
gene 2 5 7 -1.60708 0 10 -1.60708 1
genomeend 59

/* Organism #60 Fitness: 18 Error: 0 */
genomestart 60
trait 1 0.1 0 0 0 0 0 0 0 
trait 2 0.2 0 0 0 0 0 0 0 
trait 3 0.3 0 0 0 0 0 0 0 
node 1 3 1 3
node 2 1 1 1
node 3 2 1 1
node 4 3 1 1
node 5 3 1 1
node 6 3 0 2
node 7 3 0 2
gene 3 1 6 0.902041 0 1 0.902041 1
gene 1 2 6 0.858488 0 2 0.858488 1
gene 3 3 6 -0.958975 0 3 -0.958975 1
gene 1 4 6 0.527715 0 4 0.527715 1
gene 1 5 6 -1.58564 0 5 -1.58564 1
gene 1 1 7 -0.0848397 0 6 -0.0848397 1
gene 2 2 7 0.916456 0 7 0.916456 1
gene 2 3 7 -0.44214 0 8 -0.44214 1
gene 3 4 7 0.467809 0 9 0.467809 1
gene 2 5 7 0.190792 0 10 0.190792 1
genomeend 60

/* Organism #61 Fitness: 7 Error: 0 */
genomestart 61
trait 1 0.1 0 0 0 0 0 0 0 
trait 2 0.2 0 0 0 0 0 0 0 
trait 3 0.3 0 0 0 0 0 0 0 
node 1 1 1 3
node 2 2 1 1
node 3 2 1 1
node 4 3 1 1
node 5 3 1 1
node 6 1 0 2
node 7 3 0 2
gene 3 1 6 1.59991 0 1 1.59991 1
gene 3 2 6 0.339124 0 2 0.339124 1
gene 1 3 6 -1.03798 0 3 -1.03798 1
gene 2 4 6 1.83238 0 4 1.83238 1
gene 1 5 6 -0.751526 0 5 -0.751526 1
gene 2 1 7 -0.419333 0 6 -0.419333 1
gene 1 2 7 -1.36026 0 7 -1.36026 1
gene 3 3 7 0.755716 0 8 0.755716 1
gene 2 4 7 1.61042 0 9 1.61042 1
gene 1 5 7 0.0645655 0 10 0.0645655 1
genomeend 61

/* Organism #62 Fitness: 22 Error: 0 */
genomestart 62
trait 1 0.1 0 0 0 0 0 0 0 
trait 2 0.2 0 0 0 0 0 0 0 
trait 3 0.3 0 0 0 0 0 0 0 
node 1 2 1 3
node 2 1 1 1
node 3 3 1 1
node 4 1 1 1
node 5 2 1 1
node 6 3 0 2
node 7 3 0 2
gene 1 1 6 -0.862103 0 1 -0.862103 1
gene 2 2 6 -0.324672 0 2 -0.324672 1
gene 1 3 6 1.5438 0 3 1.5438 1
gene 1 4 6 -0.0751813 0 4 -0.0751813 1
gene 3 5 6 0.64882 0 5 0.64882 1
gene 1 1 7 -0.457541 0 6 -0.457541 1
gene 2 2 7 -1.07985 0 7 -1.07985 1
gene 2 3 7 -0.585756 0 8 -0.585756 1
gene 3 4 7 0.448856 0 9 0.448856 1
gene 3 5 7 1.005 0 10 1.005 1
genomeend 62

/* Organism #63 Fitness: 3 Error: 0 */
genomestart 63
trait 1 0.1 0 0 0 0 0 0 0 
trait 2 0.2 0 0 0 0 0 0 0 
trait 3 0.3 0 0 0 0 0 0 0 
node 1 1 1 3
node 2 2 1 1
node 3 2 1 1
node 4 2 1 1
node 5 1 1 1
node 6 2 0 2
node 7 1 0 2
gene 3 1 6 -0.893612 0 1 -0.893612 1
gene 1 2 6 -0.781781 0 2 -0.781781 1
gene 3 3 6 -0.730664 0 3 -0.730664 1
gene 2 4 6 0.43709 0 4 0.43709 1
gene 2 5 6 0.340136 0 5 0.340136 1
gene 3 1 7 1.50178 0 6 1.50178 1
gene 3 2 7 0.216009 0 7 0.216009 1
gene 2 3 7 -0.0896926 0 8 -0.0896926 1
gene 1 4 7 -0.0213698 0 9 -0.0213698 1
gene 3 5 7 -0.236588 0 10 -0.236588 1
genomeend 63

/* Organism #64 Fitness: 9 Error: 0 */
genomestart 64
trait 1 0.1 0 0 0 0 0 0 0 
trait 2 0.2 0 0 0 0 0 0 0 
trait 3 0.3 0 0 0 0 0 0 0 
node 1 3 1 3
node 2 1 1 1
node 3 2 1 1
node 4 3 1 1
node 5 1 1 1
node 6 1 0 2
node 7 2 0 2
gene 3 1 6 -0.709149 0 1 -0.709149 1
gene 3 2 6 0.95149 0 2 0.95149 1
gene 3 3 6 0.292097 0 3 0.292097 1
gene 3 4 6 -0.264511 0 4 -0.264511 1
gene 1 5 6 -0.289881 0 5 -0.289881 1
gene 2 1 7 -0.430177 0 6 -0.430177 1
gene 1 2 7 0.796783 0 7 0.796783 1
gene 2 3 7 -0.203321 0 8 -0.203321 1
gene 2 4 7 0.863056 0 9 0.863056 1
gene 2 5 7 0.436825 0 10 0.436825 1
genomeend 64

/* Organism #65 Fitness: 10 Error: 0 */
genomestart 65
trait 1 0.1 0 0 0 0 0 0 0 
trait 2 0.2 0 0 0 0 0 0 0 
trait 3 0.3 0 0 0 0 0 0 0 
node 1 3 1 3
node 2 2 1 1
node 3 1 1 1
node 4 2 1 1
node 5 2 1 1
node 6 2 0 2
node 7 2 0 2
gene 3 1 6 -0.279834 0 1 -0.279834 1
gene 2 2 6 0.407203 0 2 0.407203 1
gene 3 3 6 -1.55043 0 3 -1.55043 1
gene 1 4 6 -0.03316 0 4 -0.03316 1
gene 3 5 6 1.46092 0 5 1.46092 1
gene 3 1 7 -0.240368 0 6 -0.240368 1
gene 2 2 7 -0.0786075 0 7 -0.0786075 1
gene 2 3 7 0.452961 0 8 0.452961 1
gene 2 4 7 -0.185761 0 9 -0.185761 1
gene 1 5 7 0.325331 0 10 0.325331 1
genomeend 65

/* Organism #66 Fitness: 2 Error: 0 */
genomestart 66
trait 1 0.1 0 0 0 0 0 0 0 
trait 2 0.2 0 0 0 0 0 0 0 
trait 3 0.3 0 0 0 0 0 0 0 
node 1 2 1 3
node 2 1 1 1
node 3 3 1 1
node 4 3 1 1
node 5 1 1 1
node 6 1 0 2
node 7 3 0 2
gene 3 1 6 1.71416 0 1 1.71416 1
gene 2 2 6 1.56204 0 2 1.56204 1
gene 3 3 6 0.494927 0 3 0.494927 1
gene 1 4 6 -0.0118347 0 4 -0.0118347 1
gene 1 5 6 -0.224437 0 5 -0.224437 1
gene 1 1 7 1.0794 0 6 1.0794 1
gene 2 2 7 -0.221012 0 7 -0.221012 1
gene 2 3 7 -1.02146 0 8 -1.02146 1
gene 3 4 7 -1.12949 0 9 -1.12949 1
gene 1 5 7 0.525315 0 10 0.525315 1
genomeend 66

/* Organism #67 Fitness: 15 Error: 0 */
genomestart 67
trait 1 0.1 0 0 0 0 0 0 0 
trait 2 0.2 0 0 0 0 0 0 0 
trait 3 0.3 0 0 0 0 0 0 0 
node 1 2 1 3
node 2 3 1 1
node 3 1 1 1
node 4 2 1 1
node 5 2 1 1
node 6 2 0 2
node 7 3 0 2
gene 1 1 6 -0.314266 0 1 -0.314266 1
gene 3 2 6 -0.0855325 0 2 -0.0855325 1
gene 3 3 6 0.221132 0 3 0.221132 1
gene 2 4 6 -0.721618 0 4 -0.721618 1
gene 3 5 6 -0.647093 0 5 -0.647093 1
gene 1 1 7 0.0793665 0 6 0.0793665 1
gene 2 2 7 -0.354152 0 7 -0.354152 1
gene 2 3 7 -0.74393 0 8 -0.74393 1
gene 2 4 7 -0.681352 0 9 -0.681352 1
gene 2 5 7 -0.706405 0 10 -0.706405 1
gene 1 7 6 -0.191787 0 14 0 1
genomeend 67

/* Organism #68 Fitness: 30 Error: 0 */
genomestart 68
trait 1 0.1 0.160438 0 0 0 0 0 0 
trait 2 0.2 0 0 0 0 0 0 0 
trait 3 0.3 0 0 0 0 0 0 0 
node 1 1 1 3
node 2 2 1 1
node 3 2 1 1
node 4 1 1 1
node 5 3 1 1
node 6 2 0 2
node 7 2 0 2
gene 2 1 6 -0.188986 0 1 -0.188986 1
gene 3 2 6 -0.437096 0 2 -0.437096 1
gene 3 3 6 -0.0846441 0 3 -0.0846441 1
gene 3 4 6 -0.300253 0 4 -0.300253 1
gene 3 5 6 -0.495071 0 5 -0.495071 1
gene 2 1 7 -1.11679 0 6 -1.11679 1
gene 1 2 7 0.633398 0 7 0.633398 1
gene 1 3 7 -1.19235 0 8 -1.19235 1
gene 3 4 7 0.864594 0 9 0.864594 1
gene 3 5 7 -0.183775 0 10 -0.183775 1
genomeend 68

/* Organism #69 Fitness: 13 Error: 0 */
genomestart 69
trait 1 0.1 0 0 0 0 0 0 0 
trait 2 0.2 0 0 0 0 0 0 0 
trait 3 0.3 0 0 0 0 0 0 0 
node 1 1 1 3
node 2 3 1 1
node 3 2 1 1
node 4 2 1 1
node 5 2 1 1
node 6 1 0 2
node 7 2 0 2
gene 3 1 6 -0.315925 0 1 -0.315925 1
gene 2 2 6 0.391435 0 2 0.391435 1
gene 3 3 6 -1.13689 0 3 -1.13689 1
gene 1 4 6 1.34603 0 4 1.34603 1
gene 2 5 6 -0.836517 0 5 -0.836517 1
gene 3 1 7 0.526046 0 6 0.526046 1
gene 3 2 7 0.19929 0 7 0.19929 1
gene 3 3 7 -0.580274 0 8 -0.580274 1
gene 2 4 7 -0.750142 0 9 -0.750142 1
gene 1 5 7 0.671951 0 10 0.671951 1
genomeend 69

/* Organism #70 Fitness: 3 Error: 0 */
genomestart 70
trait 1 0.1 0 0 0 0 0 0 0 
trait 2 0.2 0 0 0 0 0 0 0 
trait 3 0.3 0 0 0 0 0 0 0 
node 1 2 1 3
node 2 3 1 1
node 3 2 1 1
node 4 2 1 1
node 5 1 1 1
node 6 2 0 2
node 7 3 0 2
gene 2 1 6 -0.114702 0 1 -0.114702 1
gene 2 2 6 0.635085 0 2 0.635085 1
gene 2 3 6 -0.564658 0 3 -0.564658 1
gene 1 4 6 -0.980947 0 4 -0.980947 1
gene 1 5 6 -0.450175 0 5 -0.450175 1
gene 3 1 7 0.230485 0 6 0.230485 1
gene 3 2 7 -0.728777 0 7 -0.728777 1
gene 3 3 7 -0.409611 0 8 -0.409611 1
gene 1 4 7 0.661844 0 9 0.661844 1
gene 1 5 7 0.724649 0 10 0.724649 1
genomeend 70

/* Organism #71 Fitness: 4 Error: 0 */
genomestart 71
trait 1 0.1 0 0 0 0 0 0 0 
trait 2 0.2 0 0 0 0 0 0 0 
trait 3 0.3 0 0 0 0 0 0 0 
node 1 2 1 3
node 2 3 1 1
node 3 2 1 1
node 4 2 1 1
node 5 1 1 1
node 6 2 0 2
node 7 3 0 2
gene 2 1 6 -0.114702 0 1 -0.114702 1
gene 2 2 6 0.635085 0 2 0.635085 1
gene 2 3 6 -0.564658 0 3 -0.564658 1
gene 2 4 6 -0.530419 0 4 -0.530419 1
gene 1 5 6 -0.621211 0 5 -0.621211 1
gene 3 1 7 0.230485 0 6 0.230485 1
gene 2 2 7 0.376524 0 7 0.376524 1
gene 2 3 7 -0.395898 0 8 -0.395898 1
gene 1 4 7 0.591896 0 9 0.591896 1
gene 1 5 7 0.724649 0 10 0.724649 1
gene 1 6 7 -0.0904572 0 11 0 1
genomeend 71

/* Organism #72 Fitness: 9 Error: 0 */
genomestart 72
trait 1 0.1 0 0 0 0 0 0 0 
trait 2 0.2 0 0 0 0 0 0 0 
trait 3 0.3 0 0 0 0 0 0 0 
node 1 1 1 3
node 2 3 1 1
node 3 2 1 1
node 4 1 1 1
node 5 1 1 1
node 6 2 0 2
node 7 1 0 2
gene 1 1 6 -0.694637 0 1 -0.694637 1
gene 3 2 6 -1.58368 0 2 -1.58368 1
gene 3 3 6 1.11693 0 3 1.11693 1
gene 3 4 6 0.933577 0 4 0.933577 1
gene 3 5 6 -0.386993 0 5 -0.386993 1
gene 1 1 7 0.76175 0 6 0.76175 1
gene 1 2 7 -0.763774 0 7 -0.763774 1
gene 2 3 7 1.16075 0 8 1.16075 1
gene 2 4 7 0.547418 0 9 0.547418 1
gene 3 5 7 1.54759 0 10 1.54759 1
genomeend 72

/* Organism #73 Fitness: 5 Error: 0 */
genomestart 73
trait 1 0.1 0 0 0 0 0 0 0 
trait 2 0.2 0 0 0 0 0 0 0 
trait 3 0.3 0 0 0 0 0 0 0 
node 1 3 1 3
node 2 2 1 1
node 3 2 1 1
node 4 1 1 1
node 5 3 1 1
node 6 3 0 2
node 7 1 0 2
gene 3 1 6 0.816425 0 1 0.816425 1
gene 3 2 6 -0.514188 0 2 -0.514188 1
gene 2 3 6 0.664424 0 3 0.664424 1
gene 1 4 6 0.139293 0 4 0.139293 1
gene 2 5 6 0.564438 0 5 0.564438 1
gene 1 1 7 0.219309 0 6 0.219309 1
gene 1 2 7 0.219651 0 7 0.219651 1
gene 2 3 7 0.270778 0 8 0.270778 1
gene 3 4 7 0.728564 0 9 0.728564 1
gene 3 5 7 0.612191 0 10 0.612191 1
gene 1 7 7 0.861828 1 17 0.861828 1
genomeend 73

/* Organism #74 Fitness: 14 Error: 0 */
genomestart 74
trait 1 0.1 0 0 0 0 0 0 0 
trait 2 0.2 0 0 0 0 0 0 0 
trait 3 0.3 0 0 0 0 0 0 0 
node 1 1 1 3
node 2 3 1 1
node 3 1 1 1
node 4 3 1 1
node 5 1 1 1
node 6 1 0 2
node 7 2 0 2
gene 1 1 6 0.864133 0 1 0.864133 1
gene 1 2 6 -0.0967161 0 2 -0.0967161 1
gene 2 3 6 0.15936 0 3 0.15936 1
gene 2 4 6 0.336855 0 4 0.336855 1
gene 3 5 6 -0.638849 0 5 -0.638849 1
gene 1 1 7 -0.373296 0 6 -0.373296 1
gene 1 2 7 -0.229923 0 7 -0.229923 1
gene 1 3 7 -0.378314 0 8 -0.378314 1
gene 1 4 7 0.443247 0 9 0.443247 1
gene 1 5 7 -0.105712 0 10 -0.105712 1
gene 1 7 6 -0.191787 0 14 0 1
genomeend 74

/* Organism #75 Fitness: 17 Error: 0 */
genomestart 75
trait 1 0.1 0 0 0 0 0 0 0 
trait 2 0.2 0 0 0 0 0 0 0 
trait 3 0.3 0 0 0 0 0 0 0 
node 1 2 1 3
node 2 3 1 1
node 3 1 1 1
node 4 3 1 1
node 5 1 1 1
node 6 3 0 2
node 7 2 0 2
node 8 1 0 0
gene 3 1 6 0.422566 0 1 0.422566 1
gene 3 2 6 -0.194126 0 2 -0.194126 1
gene 3 3 6 0.553488 0 3 0.553488 1
gene 3 4 6 0.997546 0 4 0.997546 1
gene 1 5 6 -0.943258 0 5 -0.943258 0
gene 3 1 7 0.328255 0 6 0.328255 1
gene 3 2 7 0.984488 0 7 0.984488 1
gene 2 3 7 0.473029 0 8 0.473029 1
gene 1 4 7 0.0474432 0 9 0.0474432 1
gene 3 5 7 0.721774 0 10 0.721774 1
gene 1 5 8 1 0 18 0 1
gene 1 8 6 -0.943258 0 19 0 1
genomeend 75

/* Organism #76 Fitness: 17 Error: 0 */
genomestart 76
trait 1 0.1 0 0 0 0 0 0 0 
trait 2 0.2 0 0 0 0 0 0 0 
trait 3 0.3 0 0 0 0 0 0 0 
node 1 1 1 3
node 2 1 1 1
node 3 2 1 1
node 4 1 1 1
node 5 1 1 1
node 6 3 0 2
node 7 2 0 2
gene 3 1 6 0.175853 0 1 0.175853 1
gene 2 2 6 0.283883 0 2 0.283883 1
gene 3 3 6 -0.00791714 0 3 -0.00791714 1
gene 1 4 6 0.587014 0 4 0.587014 1
gene 3 5 6 -0.692643 0 5 -0.692643 1
gene 1 1 7 -0.401161 0 6 -0.401161 1
gene 3 2 7 -0.0437802 0 7 -0.0437802 1
gene 1 3 7 -0.00893267 0 8 -0.00893267 1
gene 1 4 7 -0.19807 0 9 -0.19807 1
gene 3 5 7 -0.526918 0 10 -0.526918 1
genomeend 76

/* Organism #77 Fitness: 12 Error: 0 */
genomestart 77
trait 1 0.1 0 0 0 0 0 0 0 
trait 2 0.2 0 0 0 0 0 0 0 
trait 3 0.3 0 0 0 0 0 0 0 
node 1 1 1 3
node 2 2 1 1
node 3 2 1 1
node 4 2 1 1
node 5 1 1 1
node 6 3 0 2
node 7 3 0 2
gene 3 1 6 -0.153477 0 1 -0.153477 1
gene 3 2 6 -0.311131 0 2 -0.311131 1
gene 3 3 6 0.0577714 0 3 0.0577714 1
gene 2 4 6 -0.879097 0 4 -0.879097 1
gene 2 5 6 -0.646769 0 5 -0.646769 1
gene 1 1 7 0.632899 0 6 0.632899 1
gene 3 2 7 -0.00690105 0 7 -0.00690105 1
gene 3 3 7 0.768192 0 8 0.768192 1
gene 1 4 7 -0.547694 0 9 -0.547694 1
gene 2 5 7 0.424555 0 10 0.424555 1
genomeend 77

/* Organism #78 Fitness: 2 Error: 0 */
genomestart 78
trait 1 0.1 0 0 0 0 0 0 0 
trait 2 0.2 0 0 0 0 0 0 0 
trait 3 0.3 0 0 0 0 0 0 0 
node 1 1 1 3
node 2 3 1 1
node 3 1 1 1
node 4 1 1 1
node 5 1 1 1
node 6 2 0 2
node 7 1 0 2
gene 1 1 6 -1.07017 0 1 -1.07017 1
gene 1 2 6 -0.277 0 2 -0.277 1
gene 2 3 6 0.327841 0 3 0.327841 1
gene 3 4 6 -1.1477 0 4 -1.1477 1
gene 1 5 6 -0.5577 0 5 -0.5577 1
gene 1 1 7 0.460253 0 6 0.460253 1
gene 3 2 7 0.889954 0 7 0.889954 1
gene 1 3 7 -0.938661 0 8 -0.938661 1
gene 3 4 7 0.385107 0 9 0.385107 1
gene 2 5 7 -0.270027 0 10 -0.270027 1
genomeend 78

/* Organism #79 Fitness: 9 Error: 0 */
genomestart 79
trait 1 0.1 0 0 0 0 0 0 0 
trait 2 0.2 0 0 0 0 0 0 0 
trait 3 0.3 0 0 0 0 0 0 0 
node 1 1 1 3
node 2 3 1 1
node 3 3 1 1
node 4 2 1 1
node 5 1 1 1
node 6 3 0 2
node 7 2 0 2
gene 2 1 6 -0.328856 0 1 -0.328856 1
gene 3 2 6 -0.814519 0 2 -0.814519 1
gene 1 3 6 -0.880068 0 3 -0.880068 1
gene 3 4 6 -0.321896 0 4 -0.321896 1
gene 3 5 6 0.333329 0 5 0.333329 1
gene 2 1 7 -0.491145 0 6 -0.491145 1
gene 1 2 7 0.657498 0 7 0.657498 1
gene 1 3 7 -0.815802 0 8 -0.815802 1
gene 2 4 7 0.844775 0 9 0.844775 1
gene 2 5 7 0.630982 0 10 0.630982 1
genomeend 79

/* Organism #80 Fitness: 6 Error: 0 */
genomestart 80
trait 1 0.1 0 0 0 0 0 0 0 
trait 2 0.2 0 0 0 0 0 0 0 
trait 3 0.3 0 0 0 0 0 0 0 
node 1 3 1 3
node 2 3 1 1
node 3 2 1 1
node 4 2 1 1
node 5 3 1 1
node 6 1 0 2
node 7 3 0 2
gene 2 1 6 -0.601306 0 1 -0.601306 1
gene 2 2 6 -0.061249 0 2 -0.061249 1
gene 3 3 6 0.103168 0 3 0.103168 1
gene 2 4 6 0.0267992 0 4 0.0267992 1
gene 1 5 6 -0.676156 0 5 -0.676156 1
gene 2 1 7 -0.148705 0 6 -0.148705 1
gene 3 2 7 -0.406028 0 7 -0.406028 1
gene 2 3 7 -0.206584 0 8 -0.206584 1
gene 3 4 7 0.794549 0 9 0.794549 1
gene 3 5 7 0.820661 0 10 0.820661 1
gene 1 7 7 -0.675459 1 20 -0.675459 1
genomeend 80

/* Organism #81 Fitness: 5 Error: 0 */
genomestart 81
trait 1 0.1 0 0 0 0 0 0 0 
trait 2 0.2 0 0 0 0 0 0 0 
trait 3 0.3 0 0 0 0 0 0 0 
node 1 2 1 3
node 2 3 1 1
node 3 1 1 1
node 4 1 1 1
node 5 2 1 1
node 6 1 0 2
node 7 3 0 2
gene 3 1 6 -0.630368 0 1 -0.630368 1
gene 1 2 6 0.0321066 0 2 0.0321066 1
gene 1 3 6 -0.0971378 0 3 -0.0971378 1
gene 3 4 6 0.487332 0 4 0.487332 1
gene 1 5 6 1.07185 0 5 1.07185 1
gene 3 1 7 0.386217 0 6 0.386217 1
gene 3 2 7 1.22641 0 7 1.22641 1
gene 1 3 7 -0.933477 0 8 -0.933477 1
gene 3 4 7 0.363953 0 9 0.363953 1
gene 1 5 7 0.580367 0 10 0.580367 1
genomeend 81

/* Organism #82 Fitness: 17 Error: 0 */
genomestart 82
trait 1 0.1 0 0 0 0 0 0 0 
trait 2 0.2 0 0 0 0 0 0 0 
trait 3 0.3 0 0 0 0 0 0 0 
node 1 2 1 3
node 2 2 1 1
node 3 1 1 1
node 4 1 1 1
node 5 2 1 1
node 6 2 0 2
node 7 3 0 2
gene 2 1 6 -0.881765 0 1 -0.881765 1
gene 3 2 6 -0.482362 0 2 -0.482362 1
gene 2 3 6 0.689046 0 3 0.689046 1
gene 2 4 6 0.679536 0 4 0.679536 1
gene 1 5 6 -0.112945 0 5 -0.112945 1
gene 2 1 7 -0.522669 0 6 -0.522669 1
gene 2 2 7 0.283488 0 7 0.283488 1
gene 1 3 7 -0.377485 0 8 -0.377485 1
gene 3 4 7 -0.112825 0 9 -0.112825 1
gene 3 5 7 -0.190313 0 10 -0.190313 1
gene 1 6 7 -0.0904572 0 11 0 1
genomeend 82

/* Organism #83 Fitness: 16 Error: 0 */
genomestart 83
trait 1 0.1 0 0 0 0 0 0 0 
trait 2 0.2 0 0 0 0 0 0 0 
trait 3 0.3 0 0 0.955047 0 0.943297 0 0 
node 1 3 1 3
node 2 3 1 1
node 3 1 1 1
node 4 1 1 1
node 5 2 1 1
node 6 3 0 2
node 7 1 0 2
gene 1 1 6 0.115997 0 1 0.115997 1
gene 2 2 6 0.190697 0 2 0.190697 1
gene 2 3 6 -0.527113 0 3 -0.527113 1
gene 2 4 6 -0.749717 0 4 -0.749717 1
gene 1 5 6 0.440076 0 5 0.440076 1
gene 2 1 7 0.3423 0 6 0.3423 1
gene 1 2 7 -0.798911 0 7 -0.798911 1
gene 1 3 7 0.514882 0 8 0.514882 1
gene 3 4 7 -0.900301 0 9 -0.900301 1
gene 3 5 7 1.51309 0 10 1.51309 1
genomeend 83

/* Organism #84 Fitness: 7 Error: 0 */
genomestart 84
trait 1 0.1 0 0 0 0 0 0 0 
trait 2 0.2 0 0 0 0 0 0 0 
trait 3 0.3 0 0 0 0 0 0 0 
node 1 1 1 3
node 2 3 1 1
node 3 2 1 1
node 4 2 1 1
node 5 1 1 1
node 6 1 0 2
node 7 1 0 2
gene 1 1 6 0.952719 0 1 0.952719 1
gene 1 2 6 0.511262 0 2 0.511262 1
gene 2 3 6 0.0593692 0 3 0.0593692 1
gene 1 4 6 0.152107 0 4 0.152107 1
gene 2 5 6 -0.15288 0 5 -0.15288 1
gene 3 1 7 0.653029 0 6 0.653029 1
gene 1 2 7 0.501048 0 7 0.501048 1
gene 1 3 7 -0.253756 0 8 -0.253756 1
gene 1 4 7 0.378554 0 9 0.378554 1
gene 2 5 7 -0.324746 0 10 -0.324746 1
genomeend 84

/* Organism #85 Fitness: 7 Error: 0 */
genomestart 85
trait 1 0.1 0 0 0 0 0 0 0 
trait 2 0.2 0 0 0 0 0 0 0 
trait 3 0.3 0 0 0 0 0 0 0 
node 1 1 1 3
node 2 3 1 1
node 3 2 1 1
node 4 3 1 1
node 5 2 1 1
node 6 2 0 2
node 7 2 0 2
gene 3 1 6 0.000802212 0 1 0.000802212 1
gene 3 2 6 0.0686004 0 2 0.0686004 1
gene 1 3 6 -0.28498 0 3 -0.28498 1
gene 2 4 6 -0.543277 0 4 -0.543277 1
gene 3 5 6 0.0722884 0 5 0.0722884 1
gene 3 1 7 -0.217263 0 6 -0.217263 1
gene 2 2 7 0.27042 0 7 0.27042 1
gene 3 3 7 0.0534477 0 8 0.0534477 1
gene 2 4 7 -0.656105 0 9 -0.656105 1
gene 1 5 7 -0.730376 0 10 -0.730376 1
genomeend 85

/* Organism #86 Fitness: 17 Error: 0 */
genomestart 86
trait 1 0.1 0 0 0 0 0 0 0 
trait 2 0.2 0 0 0 0 0 0 0 
trait 3 0.3 0 0 0 0 0 0 0 
node 1 2 1 3
node 2 3 1 1
node 3 2 1 1
node 4 3 1 1
node 5 3 1 1
node 6 1 0 2
node 7 1 0 2
gene 2 1 6 -1.20312 0 1 -1.20312 1
gene 2 2 6 -0.95202 0 2 -0.95202 1
gene 1 3 6 -0.741528 0 3 -0.741528 1
gene 1 4 6 -1.1545 0 4 -1.1545 1
gene 3 5 6 1.20786 0 5 1.20786 1
gene 2 1 7 0.462881 0 6 0.462881 1
gene 3 2 7 0.45758 0 7 0.45758 1
gene 1 3 7 -1.10965 0 8 -1.10965 1
gene 1 4 7 -0.869315 0 9 -0.869315 1
gene 3 5 7 -0.522687 0 10 -0.522687 1
genomeend 86

/* Organism #87 Fitness: 11 Error: 0 */
genomestart 87
trait 1 0.1 0 0 0 0 0 0 0 
trait 2 0.2 0 0 0 0 0 0 0 
trait 3 0.3 0 0 0 0 0 0 0 
node 1 2 1 3
node 2 1 1 1
node 3 3 1 1
node 4 3 1 1
node 5 2 1 1
node 6 2 0 2
node 7 1 0 2
gene 1 1 6 0.877134 0 1 0.877134 1
gene 1 2 6 -0.220258 0 2 -0.220258 1
gene 3 3 6 -0.204506 0 3 -0.204506 1
gene 3 4 6 -0.190418 0 4 -0.190418 1
gene 3 5 6 0.257712 0 5 0.257712 1
gene 2 1 7 0.712293 0 6 0.712293 1
gene 3 2 7 -0.938843 0 7 -0.938843 1
gene 1 3 7 0.374601 0 8 0.374601 1
gene 3 4 7 0.321037 0 9 0.321037 1
gene 2 5 7 -0.553664 0 10 -0.553664 1
genomeend 87

/* Organism #88 Fitness: 29 Error: 0 */
genomestart 88
trait 1 0.1 0 0 0 0 0 0 0 
trait 2 0.2 0 0 0 0 0 0 0 
trait 3 0.3 0 0 0 0 0 0 0 
node 1 1 1 3
node 2 3 1 1
node 3 3 1 1
node 4 3 1 1
node 5 2 1 1
node 6 1 0 2
node 7 1 0 2
gene 3 1 6 -0.785364 0 1 -0.785364 1
gene 3 2 6 0.623751 0 2 0.623751 1
gene 3 3 6 0.459333 0 3 0.459333 1
gene 1 4 6 -0.329195 0 4 -0.329195 1
gene 3 5 6 -0.678568 0 5 -0.678568 1
gene 1 1 7 -0.523881 0 6 -0.523881 1
gene 1 2 7 -0.756951 0 7 -0.756951 1
gene 2 3 7 0.319528 0 8 0.319528 1
gene 2 4 7 0.762975 0 9 0.762975 1
gene 1 5 7 0.538147 0 10 0.538147 1
genomeend 88

/* Organism #89 Fitness: 15 Error: 0 */
genomestart 89
trait 1 0.1 0 0 0 0 0 0 0 
trait 2 0.2 0 0 0 0 0 0 0 
trait 3 0.3 0 0 0 0 0 0 0 
node 1 1 1 3
node 2 3 1 1
node 3 1 1 1
node 4 1 1 1
node 5 2 1 1
node 6 1 0 2
node 7 1 0 2
gene 2 1 6 0.559372 0 1 0.559372 1
gene 2 2 6 0.193843 0 2 0.193843 1
gene 2 3 6 1.66888 0 3 1.66888 1
gene 3 4 6 0.0057597 0 4 0.0057597 1
gene 2 5 6 -0.200114 0 5 -0.200114 1
gene 2 1 7 0.345433 0 6 0.345433 1
gene 1 2 7 1.56566 0 7 1.56566 1
gene 3 3 7 -0.889524 0 8 -0.889524 1
gene 3 4 7 0.199726 0 9 0.199726 1
gene 1 5 7 -0.108744 0 10 -0.108744 1
genomeend 89

/* Organism #90 Fitness: 6 Error: 0 */
genomestart 90
trait 1 0.1 0 0 0 0 0 0 0 
trait 2 0.2 0 0 0 0 0 0 0 
trait 3 0.3 0 0 0 0 0 0 0 
node 1 3 1 3
node 2 2 1 1
node 3 3 1 1
node 4 1 1 1
node 5 2 1 1
node 6 1 0 2
node 7 2 0 2
gene 1 1 6 0.695686 0 1 0.695686 1
gene 3 2 6 -0.170151 0 2 -0.170151 1
gene 1 3 6 -0.431121 0 3 -0.431121 1
gene 1 4 6 0.316424 0 4 0.316424 1
gene 2 5 6 0.781147 0 5 0.781147 1
gene 3 1 7 0.627093 0 6 0.627093 1
gene 1 2 7 1.02493 0 7 1.02493 1
gene 2 3 7 1.60202 0 8 1.60202 1
gene 3 4 7 -1.45185 0 9 -1.45185 1
gene 3 5 7 -0.181199 0 10 -0.181199 1
genomeend 90

/* Organism #91 Fitness: 7 Error: 0 */
genomestart 91
trait 1 0.1 0 0 0 0 0 0 0 
trait 2 0.2 0 0 0 0 0 0 0 
trait 3 0.3 0 0 0 0 0 0 0 
node 1 3 1 3
node 2 2 1 1
node 3 2 1 1
node 4 1 1 1
node 5 2 1 1
node 6 1 0 2
node 7 3 0 2
gene 1 1 6 -0.61372 0 1 -0.61372 1
gene 2 2 6 -0.820077 0 2 -0.820077 1
gene 1 3 6 0.76246 0 3 0.76246 1
gene 2 4 6 -0.545393 0 4 -0.545393 1
gene 1 5 6 -0.457602 0 5 -0.457602 1
gene 2 1 7 0.514731 0 6 0.514731 1
gene 3 2 7 -0.0401926 0 7 -0.0401926 1
gene 2 3 7 0.63102 0 8 0.63102 1
gene 1 4 7 0.135728 0 9 0.135728 1
gene 2 5 7 0.86934 0 10 0.86934 1
genomeend 91

/* Organism #92 Fitness: 11 Error: 0 */
genomestart 92
trait 1 0.1 0 0 0 0 0 0 0 
trait 2 0.2 0 0 0 0 0 0 0 
trait 3 0.3 0 0 0 0 0 0 0 
node 1 1 1 3
node 2 2 1 1
node 3 1 1 1
node 4 1 1 1
node 5 3 1 1
node 6 2 0 2
node 7 3 0 2
gene 2 1 6 -0.352947 0 1 -0.352947 1
gene 3 2 6 0.756018 0 2 0.756018 1
gene 1 3 6 0.112749 0 3 0.112749 1
gene 3 4 6 -0.0635827 0 4 -0.0635827 1
gene 3 5 6 -0.0680156 0 5 -0.0680156 1
gene 3 1 7 0.789022 0 6 0.789022 1
gene 3 2 7 0.981781 0 7 0.981781 1
gene 1 3 7 0.223562 0 8 0.223562 1
gene 2 4 7 -1.56065 0 9 -1.56065 1
gene 3 5 7 0.676859 0 10 0.676859 1
genomeend 92

/* Organism #93 Fitness: 5 Error: 0 */
genomestart 93
trait 1 0.1 0 0 0 0 0 0 0 
trait 2 0.2 0 0 0 0 0 0 0 
trait 3 0.3 0 0 0 0 0 0 0 
node 1 1 1 3
node 2 2 1 1
node 3 3 1 1
node 4 1 1 1
node 5 2 1 1
node 6 2 0 2
node 7 2 0 2
gene 1 1 6 1.81647 0 1 1.81647 1
gene 2 2 6 0.333166 0 2 0.333166 1
gene 1 3 6 0.869195 0 3 0.869195 1
gene 2 4 6 -0.40204 0 4 -0.40204 1
gene 1 5 6 -0.45116 0 5 -0.45116 1
gene 2 1 7 0.934893 0 6 0.934893 1
gene 1 2 7 0.650483 0 7 0.650483 1
gene 2 3 7 0.468456 0 8 0.468456 1
gene 3 4 7 0.0632931 0 9 0.0632931 1
gene 1 5 7 -0.908371 0 10 -0.908371 1
genomeend 93

/* Organism #94 Fitness: 5 Error: 0 */
genomestart 94
trait 1 0.1 0 0 0 0 0 0 0 
trait 2 0.2 0 0 0 0 0 0 0 
trait 3 0.3 0 0 0 0 0 0 0 
node 1 2 1 3
node 2 3 1 1
node 3 2 1 1
node 4 3 1 1
node 5 2 1 1
node 6 2 0 2
node 7 1 0 2
gene 1 1 6 -0.324506 0 1 -0.324506 1
gene 3 2 6 -0.0201776 0 2 -0.0201776 1
gene 3 3 6 0.500971 0 3 0.500971 1
gene 1 4 6 0.442948 0 4 0.442948 1
gene 1 5 6 0.406133 0 5 0.406133 1
gene 1 1 7 -0.644338 0 6 -0.644338 1
gene 2 2 7 -0.561792 0 7 -0.561792 1
gene 3 3 7 0.782149 0 8 0.782149 1
gene 3 4 7 -1.26776 0 9 -1.26776 1
gene 3 5 7 0.384629 0 10 0.384629 1
genomeend 94

/* Organism #95 Fitness: 10 Error: 0 */
genomestart 95
trait 1 0.1 0 0 0 0 0 0 0 
trait 2 0.2 0 0 0 0 0 0 0 
trait 3 0.3 0 0 0 0 0 0 0 
node 1 2 1 3
node 2 3 1 1
node 3 2 1 1
node 4 2 1 1
node 5 3 1 1
node 6 2 0 2
node 7 3 0 2
gene 1 1 6 -0.198867 0 1 -0.198867 1
gene 3 2 6 0.825315 0 2 0.825315 1
gene 3 3 6 -0.882546 0 3 -0.882546 1
gene 2 4 6 0.973702 0 4 0.973702 1
gene 2 5 6 -0.735035 0 5 -0.735035 1
gene 2 1 7 -0.23831 0 6 -0.23831 1
gene 1 2 7 -0.821249 0 7 -0.821249 1
gene 2 3 7 -0.187507 0 8 -0.187507 1
gene 1 4 7 -0.0518658 0 9 -0.0518658 1
gene 1 5 7 -0.894257 0 10 -0.894257 1
genomeend 95

/* Organism #96 Fitness: 2 Error: 0 */
genomestart 96
trait 1 0.1 0 0 0 0 0 0 0 
trait 2 0.2 0 0 0 0 0 0 0 
trait 3 0.3 0 0 0 0 0 0 0 
node 1 2 1 3
node 2 3 1 1
node 3 1 1 1
node 4 3 1 1
node 5 1 1 1
node 6 2 0 2
node 7 1 0 2
gene 3 1 6 0.187936 0 1 0.187936 1
gene 2 2 6 0.591374 0 2 0.591374 1
gene 1 3 6 -0.418266 0 3 -0.418266 1
gene 2 4 6 -1.00295 0 4 -1.00295 1
gene 3 5 6 0.460424 0 5 0.460424 1
gene 2 1 7 0.922871 0 6 0.922871 1
gene 3 2 7 -0.160652 0 7 -0.160652 1
gene 3 3 7 -0.207174 0 8 -0.207174 1
gene 1 4 7 -0.498405 0 9 -0.498405 1
gene 1 5 7 0.80992 0 10 0.80992 1
genomeend 96

/* Organism #97 Fitness: 9 Error: 0 */
genomestart 97
trait 1 0.1 0 0 0 0 0 0 0 
trait 2 0.2 0 0 0 0 0 0 0 
trait 3 0.3 0 0 0 0 0 0 0 
node 1 1 1 3
node 2 2 1 1
node 3 3 1 1
node 4 3 1 1
node 5 2 1 1
node 6 2 0 2
node 7 2 0 2
gene 2 1 6 -0.830201 0 1 -0.830201 1
gene 1 2 6 -0.982579 0 2 -0.982579 1
gene 3 3 6 1.33593 0 3 1.33593 1
gene 2 4 6 -0.358567 0 4 -0.358567 1
gene 1 5 6 -0.251472 0 5 -0.251472 1
gene 3 1 7 -0.57951 0 6 -0.57951 1
gene 1 2 7 0.294225 0 7 0.294225 1
gene 2 3 7 0.0373188 0 8 0.0373188 1
gene 3 4 7 -0.111834 0 9 -0.111834 1
gene 1 5 7 -1.53407 0 10 -1.53407 1
genomeend 97

/* Organism #98 Fitness: 10 Error: 0 */
genomestart 98
trait 1 0.1 0 0 0 0 0 0 0 
trait 2 0.2 0 0 0 0 0 0 0 
trait 3 0.3 0 0 0 0 0 0 0 
node 1 1 1 3
node 2 2 1 1
node 3 2 1 1
node 4 2 1 1
node 5 1 1 1
node 6 2 0 2
node 7 1 0 2
gene 3 1 6 -0.851012 0 1 -0.851012 1
gene 1 2 6 -0.847324 0 2 -0.847324 1
gene 1 3 6 0.0406567 0 3 0.0406567 1
gene 3 4 6 0.00479054 0 4 0.00479054 1
gene 1 5 6 0.184079 0 5 0.184079 1
gene 1 1 7 1.22031 0 6 1.22031 1
gene 3 2 7 -0.472458 0 7 -0.472458 1
gene 2 3 7 0.291293 0 8 0.291293 1
gene 3 4 7 -1.51639 0 9 -1.51639 1
gene 2 5 7 0.524524 0 10 0.524524 1
genomeend 98

/* Organism #99 Fitness: 12 Error: 0 */
genomestart 99
trait 1 0.1 0 0 0 0 0 0 0 
trait 2 0.2 0 0 0 0 0 0 0 
trait 3 0.3 0 0 0 0 0 0 0 
node 1 2 1 3
node 2 1 1 1
node 3 1 1 1
node 4 1 1 1
node 5 3 1 1
node 6 1 0 2
node 7 3 0 2
gene 3 1 6 0.924439 0 1 0.924439 1
gene 3 2 6 0.44417 0 2 0.44417 1
gene 2 3 6 0.429508 0 3 0.429508 1
gene 2 4 6 0.495518 0 4 0.495518 1
gene 2 5 6 -0.464558 0 5 -0.464558 1
gene 3 1 7 0.931501 0 6 0.931501 1
gene 3 2 7 0.0666367 0 7 0.0666367 1
gene 3 3 7 -0.64099 0 8 -0.64099 1
gene 2 4 7 0.688741 0 9 0.688741 1
gene 1 5 7 0.729224 0 10 0.729224 1
genomeend 99

/* Organism #100 Fitness: 2 Error: 0 */
genomestart 100
trait 1 0.1 0 0 0 0 0 0 0 
trait 2 0.2 0 0 0 0 0 0 0 
trait 3 0.3 0 0 0 0 0 0 0 
node 1 1 1 3
node 2 3 1 1
node 3 3 1 1
node 4 3 1 1
node 5 2 1 1
node 6 1 0 2
node 7 1 0 2
gene 1 1 6 0.365142 0 1 0.365142 1
gene 1 2 6 0.602766 0 2 0.602766 1
gene 2 3 6 -0.168001 0 3 -0.168001 1
gene 3 4 6 -0.0939823 0 4 -0.0939823 1
gene 3 5 6 -0.149584 0 5 -0.149584 1
gene 1 1 7 0.0816899 0 6 0.0816899 1
gene 1 2 7 -0.0414408 0 7 -0.0414408 1
gene 1 3 7 -0.764782 0 8 -0.764782 1
gene 2 4 7 0.665766 0 9 0.665766 1
gene 1 5 7 0.20545 0 10 0.20545 1
gene 1 7 6 -0.191787 0 14 0 1
genomeend 100

/* Organism #101 Fitness: 12 Error: 0 */
genomestart 101
trait 1 0.1 0 0 0 0 0 0 0 
trait 2 0.2 0 0 0 0 0 0 0 
trait 3 0.3 0 0 0 0 0 0 0 
node 1 3 1 3
node 2 2 1 1
node 3 1 1 1
node 4 3 1 1
node 5 2 1 1
node 6 1 0 2
node 7 3 0 2
gene 3 1 6 0.357689 0 1 0.357689 1
gene 3 2 6 0.705925 0 2 0.705925 1
gene 1 3 6 -0.0143916 0 3 -0.0143916 1
gene 3 4 6 0.428551 0 4 0.428551 1
gene 3 5 6 -0.753886 0 5 -0.753886 1
gene 1 1 7 -0.836616 0 6 -0.836616 1
gene 2 2 7 -0.523092 0 7 -0.523092 1
gene 1 3 7 0.209464 0 8 0.209464 1
gene 2 4 7 -0.675913 0 9 -0.675913 1
gene 1 5 7 0.061857 0 10 0.061857 1
genomeend 101

/* Organism #102 Fitness: 3 Error: 0 */
genomestart 102
trait 1 0.1 0 0 0 0 0 0 0 
trait 2 0.2 0 0 0 0 0 0 0 
trait 3 0.3 0 0 0 0 0 0 0 
node 1 3 1 3
node 2 2 1 1
node 3 3 1 1
node 4 3 1 1
node 5 2 1 1
node 6 1 0 2
node 7 2 0 2
gene 3 1 6 0.731063 0 1 0.731063 1
gene 2 2 6 -0.696673 0 2 -0.696673 1
gene 3 3 6 -0.419239 0 3 -0.419239 1
gene 2 4 6 -0.364231 0 4 -0.364231 1
gene 3 5 6 -0.247237 0 5 -0.247237 1
gene 3 1 7 -0.0796204 0 6 -0.0796204 1
gene 2 2 7 -0.866268 0 7 -0.866268 1
gene 1 3 7 0.0988085 0 8 0.0988085 1
gene 3 4 7 -0.660146 0 9 -0.660146 1
gene 1 5 7 -0.323318 0 10 -0.323318 1
genomeend 102

/* Organism #103 Fitness: 3 Error: 0 */
genomestart 103
trait 1 0.1 0 0 0 0 0 0 0 
trait 2 0.2 0 0 0 0 0 0 0 
trait 3 0.3 0 0 0 0 0 0 0 
node 1 3 1 3
node 2 2 1 1
node 3 2 1 1
node 4 3 1 1
node 5 2 1 1
node 6 1 0 2
node 7 3 0 2
gene 3 1 6 0.752221 0 1 0.752221 1
gene 3 2 6 0.243205 0 2 0.243205 1
gene 1 3 6 -0.546898 0 3 -0.546898 1
gene 3 4 6 -0.104126 0 4 -0.104126 1
gene 3 5 6 -0.759863 0 5 -0.759863 1
gene 3 1 7 1.61716 0 6 1.61716 1
gene 3 2 7 0.570079 0 7 0.570079 1
gene 2 3 7 -0.32699 0 8 -0.32699 1
gene 1 4 7 0.0284293 0 9 0.0284293 1
gene 1 5 7 -0.475131 0 10 -0.475131 1
genomeend 103

/* Organism #104 Fitness: 5 Error: 0 */
genomestart 104
trait 1 0.1 0 0 0 0 0 0 0 
trait 2 0.2 0 0 0 0 0 0 0 
trait 3 0.3 0 0 0 0 0 0 0 
node 1 3 1 3
node 2 3 1 1
node 3 3 1 1
node 4 3 1 1
node 5 3 1 1
node 6 1 0 2
node 7 2 0 2
gene 2 1 6 -1.59834 0 1 -1.59834 1
gene 3 2 6 -0.34754 0 2 -0.34754 1
gene 1 3 6 0.307807 0 3 0.307807 1
gene 1 4 6 0.854533 0 4 0.854533 1
gene 2 5 6 -0.1768 0 5 -0.1768 1
gene 3 1 7 -0.835857 0 6 -0.835857 1
gene 3 2 7 0.39947 0 7 0.39947 1
gene 3 3 7 -0.1727 0 8 -0.1727 1
gene 1 4 7 0.881065 0 9 0.881065 1
gene 3 5 7 -0.138498 0 10 -0.138498 1
genomeend 104

/* Organism #105 Fitness: 12 Error: 0 */
genomestart 105
trait 1 0.1 0 0 0 0 0 0 0 
trait 2 0.2 0 0 0 0 0 0 0 
trait 3 0.3 0 0 0 0 0 0 0 
node 1 3 1 3
node 2 1 1 1
node 3 1 1 1
node 4 2 1 1
node 5 3 1 1
node 6 2 0 2
node 7 2 0 2
gene 2 1 6 1.13685 0 1 1.13685 1
gene 2 2 6 0.742398 0 2 0.742398 1
gene 1 3 6 -1.55128 0 3 -1.55128 1
gene 3 4 6 -0.593906 0 4 -0.593906 1
gene 1 5 6 0.381051 0 5 0.381051 1
gene 1 1 7 0.795575 0 6 0.795575 1
gene 1 2 7 1.51264 0 7 1.51264 1
gene 3 3 7 -1.1429 0 8 -1.1429 1
gene 3 4 7 0.867097 0 9 0.867097 1
gene 3 5 7 0.283572 0 10 0.283572 1
genomeend 105

/* Organism #106 Fitness: 2 Error: 0 */
genomestart 106
trait 1 0.1 0 0 0 0 0 0 0 
trait 2 0.2 0 0 0 0 0 0 0 
trait 3 0.3 0 0 0 0 0 0 0 
node 1 3 1 3
node 2 1 1 1
node 3 2 1 1
node 4 1 1 1
node 5 3 1 1
node 6 1 0 2
node 7 3 0 2
gene 1 1 6 -0.0904377 0 1 -0.0904377 1
gene 2 2 6 -1.47189 0 2 -1.47189 1
gene 2 3 6 -0.468874 0 3 -0.468874 1
gene 3 4 6 1.32835 0 4 1.32835 1
gene 2 5 6 1.07337 0 5 1.07337 1
gene 3 1 7 -1.15606 0 6 -1.15606 1
gene 3 2 7 -0.923363 0 7 -0.923363 1
gene 1 3 7 -0.00301348 0 8 -0.00301348 1
gene 2 4 7 -1.0641 0 9 -1.0641 1
gene 3 5 7 0.133953 0 10 0.133953 1
genomeend 106

/* Organism #107 Fitness: 15 Error: 0 */
genomestart 107
trait 1 0.1 0 0 0 0 0 0 0 
trait 2 0.2 0 0 0 0 0 0 0 
trait 3 0.3 0 0 0 0 0 0 0 
node 1 2 1 3
node 2 3 1 1
node 3 1 1 1
node 4 2 1 1
node 5 2 1 1
node 6 2 0 2
node 7 3 0 2
node 8 1 0 0
gene 3 1 6 0.822454 0 1 0.822454 1
gene 1 2 6 0.121436 0 2 0.121436 1
gene 3 3 6 0.340463 0 3 0.340463 1
gene 2 4 6 -0.673212 0 4 -0.673212 1
gene 1 5 6 -0.367159 0 5 -0.367159 0
gene 1 1 7 0.101034 0 6 0.101034 1
gene 2 2 7 0.0480871 0 7 0.0480871 1
gene 2 3 7 -0.864089 0 8 -0.864089 1
gene 2 4 7 -0.673651 0 9 -0.673651 1
gene 1 5 7 0.372236 0 10 0.372236 1
gene 1 5 8 1 0 18 0 1
gene 1 8 6 -0.367159 0 19 0 1
genomeend 107

/* Organism #108 Fitness: 3 Error: 0 */
genomestart 108
trait 1 0.1 0 0 0 0 0 0 0 
trait 2 0.2 0 0 0 0 0 0 0 
trait 3 0.3 0 0 0 0 0 0 0 
node 1 1 1 3
node 2 2 1 1
node 3 2 1 1
node 4 1 1 1
node 5 1 1 1
node 6 2 0 2
node 7 3 0 2
gene 1 1 6 -0.468822 0 1 -0.468822 1
gene 1 2 6 -0.273302 0 2 -0.273302 1
gene 2 3 6 -0.0414491 0 3 -0.0414491 1
gene 1 4 6 -0.0199386 0 4 -0.0199386 1
gene 3 5 6 1.2097 0 5 1.2097 1
gene 1 1 7 -0.698426 0 6 -0.698426 1
gene 2 2 7 -1.5781 0 7 -1.5781 1
gene 2 3 7 -0.874505 0 8 -0.874505 1
gene 2 4 7 0.322079 0 9 0.322079 1
gene 2 5 7 0.212788 0 10 0.212788 1
genomeend 108

/* Organism #109 Fitness: 11 Error: 0 */
genomestart 109
trait 1 0.1 0 0 0 0 0 0 0 
trait 2 0.2 0 0 0 0 0 0 0 
trait 3 0.3 0 0 0 0 0 0 0 
node 1 1 1 3
node 2 1 1 1
node 3 2 1 1
node 4 3 1 1
node 5 3 1 1
node 6 3 0 2
node 7 2 0 2
gene 3 1 6 0.0384053 0 1 0.0384053 1
gene 3 2 6 0.210672 0 2 0.210672 1
gene 2 3 6 0.162139 0 3 0.162139 1
gene 3 4 6 0.735433 0 4 0.735433 1
gene 2 5 6 0.0316874 0 5 0.0316874 1
gene 2 1 7 0.683737 0 6 0.683737 1
gene 3 2 7 -1.00354 0 7 -1.00354 1
gene 2 3 7 0.641204 0 8 0.641204 1
gene 3 4 7 -0.257831 0 9 -0.257831 1
gene 3 5 7 0.188705 0 10 0.188705 1
genomeend 109

/* Organism #110 Fitness: 5 Error: 0 */
genomestart 110
trait 1 0.1 0 0 0 0 0 0 0 
trait 2 0.2 0 0 0 0 0 0 0 
trait 3 0.3 0 0 0 0 0 0 0 
node 1 3 1 3
node 2 3 1 1
node 3 3 1 1
node 4 1 1 1
node 5 1 1 1
node 6 2 0 2
node 7 2 0 2
gene 3 1 6 0.161401 0 1 0.161401 1
gene 3 2 6 -1.52473 0 2 -1.52473 1
gene 1 3 6 -0.978916 0 3 -0.978916 1
gene 2 4 6 1.77401 0 4 1.77401 1
gene 3 5 6 0.746757 0 5 0.746757 1
gene 2 1 7 0.988874 0 6 0.988874 1
gene 3 2 7 -0.164703 0 7 -0.164703 1
gene 2 3 7 1.27208 0 8 1.27208 1
gene 2 4 7 0.823538 0 9 0.823538 1
gene 1 5 7 -0.512088 0 10 -0.512088 1
genomeend 110

/* Organism #111 Fitness: 13 Error: 0 */
genomestart 111
trait 1 0.1 0 0 0 0 0 0 0 
trait 2 0.2 0 0 0 0 0 0 0 
trait 3 0.3 0 0 0 0 0 0 0 
node 1 2 1 3
node 2 3 1 1
node 3 1 1 1
node 4 3 1 1
node 5 3 1 1
node 6 2 0 2
node 7 3 0 2
gene 3 1 6 -0.413614 0 1 -0.413614 1
gene 2 2 6 -0.44409 0 2 -0.44409 1
gene 2 3 6 -0.600569 0 3 -0.600569 1
gene 3 4 6 -0.123009 0 4 -0.123009 1
gene 3 5 6 -0.391522 0 5 -0.391522 1
gene 3 1 7 -0.0238209 0 6 -0.0238209 1
gene 3 2 7 -0.00548682 0 7 -0.00548682 1
gene 2 3 7 0.787294 0 8 0.787294 1
gene 1 4 7 0.0289771 0 9 0.0289771 1
gene 1 5 7 0.522284 0 10 0.522284 1
genomeend 111

/* Organism #112 Fitness: 5 Error: 0 */
genomestart 112
trait 1 0.1 0 0 0 0 0 0 0 
trait 2 0.2 0 0 0 0 0 0 0 
trait 3 0.84606 0.858852 0 0 0.518705 0.300343 0 0 
node 1 3 1 3
node 2 1 1 1
node 3 2 1 1
node 4 2 1 1
node 5 3 1 1
node 6 1 0 2
node 7 3 0 2
gene 2 1 6 0.083214 0 1 0.083214 1
gene 1 2 6 -0.889112 0 2 -0.889112 1
gene 2 3 6 -0.0396061 0 3 -0.0396061 1
gene 3 4 6 -0.243185 0 4 -0.243185 1
gene 1 5 6 -0.626578 0 5 -0.626578 1
gene 1 1 7 -0.875048 0 6 -0.875048 1
gene 3 2 7 -0.880655 0 7 -0.880655 1
gene 3 3 7 0.143647 0 8 0.143647 1
gene 3 4 7 0.0162132 0 9 0.0162132 1
gene 3 5 7 -0.767108 0 10 -0.767108 1
genomeend 112

/* Organism #113 Fitness: 4 Error: 0 */
genomestart 113
trait 1 0.1 0 0 0 0 0 0 0 
trait 2 0.2 0 0 0 0 0 0 0 
trait 3 0.3 0 0 0 0 0 0 0 
node 1 1 1 3
node 2 1 1 1
node 3 2 1 1
node 4 2 1 1
node 5 2 1 1
node 6 2 0 2
node 7 2 0 2
gene 3 1 6 -0.33175 0 1 -0.33175 1
gene 2 2 6 0.934575 0 2 0.934575 1
gene 3 3 6 -0.164414 0 3 -0.164414 1
gene 2 4 6 -0.00878231 0 4 -0.00878231 1
gene 3 5 6 -0.114522 0 5 -0.114522 1
gene 1 1 7 0.122702 0 6 0.122702 1
gene 3 2 7 0.483364 0 7 0.483364 1
gene 2 3 7 0.199633 0 8 0.199633 1
gene 3 4 7 0.0458856 0 9 0.0458856 1
gene 3 5 7 -0.848432 0 10 -0.848432 1
genomeend 113

/* Organism #114 Fitness: 31 Error: 0 */
genomestart 114
trait 1 0.1 0 0 0 0 0 0 0 
trait 2 0.2 0 0 0 0 0 0 0 
trait 3 0.3 0 0 0 0 0 0 0 
node 1 2 1 3
node 2 1 1 1
node 3 2 1 1
node 4 1 1 1
node 5 1 1 1
node 6 2 0 2
node 7 3 0 2
gene 2 1 6 7.27787e-05 0 1 7.27787e-05 1
gene 2 2 6 0.705967 0 2 0.705967 1
gene 2 3 6 0.252845 0 3 0.252845 1
gene 2 4 6 0.490877 0 4 0.490877 1
gene 1 5 6 -0.420132 0 5 -0.420132 1
gene 2 1 7 -0.228895 0 6 -0.228895 1
gene 3 2 7 0.809036 0 7 0.809036 1
gene 3 3 7 0.281892 0 8 0.281892 1
gene 1 4 7 0.38042 0 9 0.38042 1
gene 1 5 7 -0.134432 0 10 -0.134432 1
gene 1 7 6 -0.191787 0 14 0 1
genomeend 114

/* Organism #115 Fitness: 113 Error: 0 */
genomestart 115
trait 1 0.1 0 0 0 0 0 0 0 
trait 2 0.2 0 0 0 0 0 0 0 
trait 3 0.3 0 0 0 0 0 0 0 
node 1 1 1 3
node 2 3 1 1
node 3 1 1 1
node 4 1 1 1
node 5 2 1 1
node 6 2 0 2
node 7 1 0 2
gene 3 1 6 0.509066 0 1 0.509066 1
gene 3 2 6 0.552979 0 2 0.552979 1
gene 1 3 6 -0.458428 0 3 -0.458428 1
gene 3 4 6 0.0633943 0 4 0.0633943 1
gene 2 5 6 -0.348473 0 5 -0.348473 1
gene 2 1 7 -0.139057 0 6 -0.139057 1
gene 3 2 7 0.493749 0 7 0.493749 1
gene 3 3 7 -0.304107 0 8 -0.304107 1
gene 1 4 7 -0.120889 0 9 -0.120889 1
gene 3 5 7 0.537644 0 10 0.537644 1
gene 1 7 6 -0.191787 0 14 0 1
genomeend 115

/* Organism #116 Fitness: 9 Error: 0 */
genomestart 116
trait 1 0.1 0 0 0 0 0 0 0 
trait 2 0.2 0 0 0 0 0 0 0 
trait 3 0.3 0 0 0 0 0 0 0 
node 1 1 1 3
node 2 1 1 1
node 3 2 1 1
node 4 3 1 1
node 5 3 1 1
node 6 2 0 2
node 7 2 0 2
gene 1 1 6 0.871178 0 1 0.871178 1
gene 3 2 6 0.657633 0 2 0.657633 1
gene 1 3 6 0.48554 0 3 0.48554 1
gene 3 4 6 0.59553 0 4 0.59553 1
gene 1 5 6 -0.26809 0 5 -0.26809 1
gene 2 1 7 0.267025 0 6 0.267025 1
gene 2 2 7 0.421762 0 7 0.421762 1
gene 3 3 7 -1.87294 0 8 -1.87294 1
gene 1 4 7 -0.377666 0 9 -0.377666 1
gene 1 5 7 0.0333804 0 10 0.0333804 1
genomeend 116

/* Organism #117 Fitness: 8 Error: 0 */
genomestart 117
trait 1 0.1 0 0 0 0 0 0 0 
trait 2 0.2 0 0 0 0 0 0 0 
trait 3 0.3 0 0 0 0 0 0 0 
node 1 3 1 3
node 2 2 1 1
node 3 2 1 1
node 4 2 1 1
node 5 3 1 1
node 6 1 0 2
node 7 1 0 2
gene 2 1 6 -0.884736 0 1 -0.884736 1
gene 3 2 6 -0.524157 0 2 -0.524157 1
gene 3 3 6 -0.897327 0 3 -0.897327 1
gene 1 4 6 -0.436567 0 4 -0.436567 1
gene 1 5 6 0.870727 0 5 0.870727 1
gene 3 1 7 -0.833685 0 6 -0.833685 1
gene 1 2 7 -0.177556 0 7 -0.177556 1
gene 1 3 7 0.357044 0 8 0.357044 1
gene 2 4 7 0.0572256 0 9 0.0572256 1
gene 3 5 7 0.452036 0 10 0.452036 1
genomeend 117

/* Organism #118 Fitness: 2 Error: 0 */
genomestart 118
trait 1 0.1 0 0 0 0 0 0 0 
trait 2 0.2 0 0 0 0 0 0 0 
trait 3 0.3 0 0 0 0 0 0 0 
node 1 1 1 3
node 2 3 1 1
node 3 1 1 1
node 4 2 1 1
node 5 2 1 1
node 6 3 0 2
node 7 2 0 2
gene 2 1 6 0.469723 0 1 0.469723 1
gene 1 2 6 -0.00829578 0 2 -0.00829578 1
gene 3 3 6 0.181333 0 3 0.181333 1
gene 1 4 6 0.960703 0 4 0.960703 1
gene 2 5 6 0.347305 0 5 0.347305 1
gene 1 1 7 0.745003 0 6 0.745003 1
gene 3 2 7 0.506892 0 7 0.506892 1
gene 2 3 7 0.272781 0 8 0.272781 1
gene 1 4 7 0.829701 0 9 0.829701 1
gene 2 5 7 -0.382189 0 10 -0.382189 1
genomeend 118

/* Organism #119 Fitness: 9 Error: 0 */
genomestart 119
trait 1 0.1 0 0 0 0 0 0 0 
trait 2 0.2 0 0 0 0 0 0 0 
trait 3 0.3 0 0 0 0 0 0 0 
node 1 3 1 3
node 2 3 1 1
node 3 3 1 1
node 4 3 1 1
node 5 3 1 1
node 6 2 0 2
node 7 1 0 2
gene 2 1 6 -0.4817 0 1 -0.4817 1
gene 3 2 6 1.04795 0 2 1.04795 1
gene 1 3 6 0.121145 0 3 0.121145 1
gene 1 4 6 -0.600362 0 4 -0.600362 1
gene 3 5 6 -0.147597 0 5 -0.147597 1
gene 1 1 7 0.163124 0 6 0.163124 1
gene 1 2 7 -0.75406 0 7 -0.75406 1
gene 3 3 7 -0.252406 0 8 -0.252406 1
gene 1 4 7 0.105816 0 9 0.105816 1
gene 3 5 7 -0.801085 0 10 -0.801085 1
genomeend 119

/* Organism #120 Fitness: 4 Error: 0 */
genomestart 120
trait 1 0.1 0 0 0 0 0 0 0 
trait 2 0.2 0 0 0 0 0 0 0 
trait 3 0.3 0 0 0 0 0 0 0 
node 1 2 1 3
node 2 1 1 1
node 3 2 1 1
node 4 2 1 1
node 5 2 1 1
node 6 2 0 2
node 7 2 0 2
gene 1 1 6 1.03931 0 1 1.03931 1
gene 3 2 6 -0.607483 0 2 -0.607483 1
gene 3 3 6 0.23221 0 3 0.23221 1
gene 1 4 6 -0.456518 0 4 -0.456518 1
gene 3 5 6 -0.0099116 0 5 -0.0099116 1
gene 2 1 7 0.172004 0 6 0.172004 1
gene 3 2 7 -0.157515 0 7 -0.157515 1
gene 2 3 7 1.0511 0 8 1.0511 1
gene 3 4 7 0.440112 0 9 0.440112 1
gene 1 5 7 -0.993365 0 10 -0.993365 1
genomeend 120

/* Organism #121 Fitness: 15 Error: 0 */
genomestart 121
trait 1 0 0.93355 0 0.150433 0 0 0 0 
trait 2 0.2 0 0 0 0 0 0 0 
trait 3 0.3 0 0 0 0 0 0 0 
node 1 1 1 3
node 2 1 1 1
node 3 2 1 1
node 4 3 1 1
node 5 3 1 1
node 6 2 0 2
node 7 2 0 2
gene 1 1 6 -0.261779 0 1 -0.261779 1
gene 3 2 6 1.16032 0 2 1.16032 1
gene 1 3 6 1.0202 0 3 1.0202 1
gene 2 4 6 0.103609 0 4 0.103609 1
gene 1 5 6 -0.746235 0 5 -0.746235 1
gene 1 1 7 -1.66419 0 6 -1.66419 1
gene 3 2 7 -1.01256 0 7 -1.01256 1
gene 1 3 7 -1.76582 0 8 -1.76582 1
gene 2 4 7 -0.555888 0 9 -0.555888 1
gene 1 5 7 -0.927344 0 10 -0.927344 1
genomeend 121

/* Organism #122 Fitness: 11 Error: 0 */
genomestart 122
trait 1 0.1 0 0 0 0 0 0 0 
trait 2 0.2 0 0 0 0 0 0 0 
trait 3 0.3 0 0 0 0 0 0 0 
node 1 2 1 3
node 2 3 1 1
node 3 1 1 1
node 4 1 1 1
node 5 3 1 1
node 6 2 0 2
node 7 3 0 2
gene 1 1 6 0.0158286 0 1 0.0158286 1
gene 3 2 6 1.3046 0 2 1.3046 1
gene 1 3 6 -0.202813 0 3 -0.202813 1
gene 3 4 6 0.653941 0 4 0.653941 1
gene 1 5 6 -1.26164 0 5 -1.26164 1
gene 2 1 7 -1.45448 0 6 -1.45448 1
gene 1 2 7 -0.328213 0 7 -0.328213 1
gene 1 3 7 -0.570545 0 8 -0.570545 1
gene 3 4 7 -0.892323 0 9 -0.892323 1
gene 2 5 7 -0.514467 0 10 -0.514467 1
genomeend 122

/* Organism #123 Fitness: 18 Error: 0 */
genomestart 123
trait 1 0.1 0 0 0 0 0 0 0 
trait 2 0.2 0 0 0 0 0 0 0 
trait 3 0.3 0 0 0 0 0 0 0 
node 1 2 1 3
node 2 1 1 1
node 3 1 1 1
node 4 2 1 1
node 5 2 1 1
node 6 1 0 2
node 7 2 0 2
gene 2 1 6 0.799933 0 1 0.799933 1
gene 2 2 6 -0.820953 0 2 -0.820953 1
gene 1 3 6 -0.105116 0 3 -0.105116 1
gene 2 4 6 -0.305831 0 4 -0.305831 1
gene 2 5 6 -0.977734 0 5 -0.977734 1
gene 1 1 7 -0.953054 0 6 -0.953054 1
gene 3 2 7 0.614441 0 7 0.614441 1
gene 3 3 7 -0.566918 0 8 -0.566918 1
gene 2 4 7 -0.117901 0 9 -0.117901 1
gene 1 5 7 -0.519411 0 10 -0.519411 1
genomeend 123

/* Organism #124 Fitness: 8 Error: 0 */
genomestart 124
trait 1 0.1 0 0 0 0 0 0 0 
trait 2 0.2 0 0 0 0 0 0 0 
trait 3 0.3 0 0 0 0 0 0 0 
node 1 2 1 3
node 2 1 1 1
node 3 1 1 1
node 4 1 1 1
node 5 1 1 1
node 6 1 0 2
node 7 1 0 2
gene 2 1 6 0.516304 0 1 0.516304 1
gene 2 2 6 -0.271238 0 2 -0.271238 1
gene 1 3 6 0.832307 0 3 0.832307 1
gene 1 4 6 -0.69774 0 4 -0.69774 1
gene 2 5 6 0.0517593 0 5 0.0517593 1
gene 1 1 7 0.0369906 0 6 0.0369906 1
gene 1 2 7 0.0901836 0 7 0.0901836 1
gene 3 3 7 0.361993 0 8 0.361993 1
gene 3 4 7 -0.969414 0 9 -0.969414 1
gene 2 5 7 0.997867 0 10 0.997867 1
genomeend 124

/* Organism #125 Fitness: 9 Error: 0 */
genomestart 125
trait 1 0.1 0 0 0 0 0 0 0 
trait 2 0.2 0 0 0 0 0 0 0 
trait 3 0.3 0 0 0 0 0 0 0 
node 1 3 1 3
node 2 1 1 1
node 3 3 1 1
node 4 1 1 1
node 5 3 1 1
node 6 3 0 2
node 7 3 0 2
gene 1 1 6 -0.422465 0 1 -0.422465 1
gene 2 2 6 -0.275497 0 2 -0.275497 1
gene 3 3 6 -0.32268 0 3 -0.32268 1
gene 1 4 6 -0.498272 0 4 -0.498272 1
gene 3 5 6 -0.885134 0 5 -0.885134 1
gene 1 1 7 -0.149878 0 6 -0.149878 1
gene 2 2 7 -0.644638 0 7 -0.644638 1
gene 2 3 7 0.00458504 0 8 0.00458504 1
gene 3 4 7 0.921082 0 9 0.921082 1
gene 3 5 7 0.0422376 0 10 0.0422376 1
genomeend 125

/* Organism #126 Fitness: 51 Error: 0 */
genomestart 126
trait 1 0.1 0 0 0 0 0 0 0 
trait 2 0.2 0 0 0 0 0 0 0 
trait 3 0.3 0 0 0 0 0 0 0 
node 1 3 1 3
node 2 3 1 1
node 3 2 1 1
node 4 3 1 1
node 5 2 1 1
node 6 3 0 2
node 7 3 0 2
gene 1 1 6 -0.78493 0 1 -0.78493 1
gene 2 2 6 0.410339 0 2 0.410339 1
gene 1 3 6 0.192197 0 3 0.192197 1
gene 1 4 6 -0.817301 0 4 -0.817301 1
gene 3 5 6 -0.971519 0 5 -0.971519 1
gene 2 1 7 -0.215838 0 6 -0.215838 1
gene 2 2 7 -0.822931 0 7 -0.822931 1
gene 2 3 7 -0.0308799 0 8 -0.0308799 1
gene 2 4 7 -0.99979 0 9 -0.99979 1
gene 1 5 7 0.408199 0 10 0.408199 1
gene 1 7 6 -0.191787 0 14 0 1
genomeend 126

/* Organism #127 Fitness: 9 Error: 0 */
genomestart 127
trait 1 0.1 0 0 0 0 0 0 0 
trait 2 0.2 0 0 0 0 0 0 0 
trait 3 0.3 0 0 0 0 0 0 0 
node 1 2 1 3
node 2 1 1 1
node 3 2 1 1
node 4 3 1 1
node 5 3 1 1
node 6 3 0 2
node 7 2 0 2
gene 3 1 6 -0.796642 0 1 -0.796642 1
gene 3 2 6 -0.486933 0 2 -0.486933 1
gene 1 3 6 -0.00116412 0 3 -0.00116412 1
gene 1 4 6 -0.511411 0 4 -0.511411 1
gene 1 5 6 -0.608302 0 5 -0.608302 1
gene 1 1 7 -1.84839 0 6 -1.84839 1
gene 1 2 7 1.08743 0 7 1.08743 1
gene 2 3 7 -0.174722 0 8 -0.174722 1
gene 2 4 7 -0.34605 0 9 -0.34605 1
gene 1 5 7 -0.757279 0 10 -0.757279 1
genomeend 127

/* Organism #128 Fitness: 6 Error: 0 */
genomestart 128
trait 1 0.1 0 0 0 0 0 0 0 
trait 2 0.2 0 0 0 0 0 0 0 
trait 3 0.3 0 0 0 0 0 0 0 
node 1 2 1 3
node 2 3 1 1
node 3 1 1 1
node 4 1 1 1
node 5 2 1 1
node 6 1 0 2
node 7 3 0 2
gene 3 1 6 -0.590782 0 1 -0.590782 1
gene 3 2 6 0.939635 0 2 0.939635 1
gene 3 3 6 -0.491586 0 3 -0.491586 1
gene 2 4 6 0.866798 0 4 0.866798 1
gene 2 5 6 -0.515672 0 5 -0.515672 1
gene 3 1 7 0.870891 0 6 0.870891 1
gene 1 2 7 0.917814 0 7 0.917814 1
gene 3 3 7 0.810076 0 8 0.810076 1
gene 1 4 7 -0.423956 0 9 -0.423956 1
gene 1 5 7 -0.537428 0 10 -0.537428 1
gene 1 7 6 -0.191787 0 14 0 1
genomeend 128

/* Organism #129 Fitness: 11 Error: 0 */
genomestart 129
trait 1 0.1 0 0 0 0 0 0 0 
trait 2 0.2 0 0 0 0 0 0 0 
trait 3 0.3 0 0 0 0 0 0 0 
node 1 2 1 3
node 2 1 1 1
node 3 2 1 1
node 4 2 1 1
node 5 2 1 1
node 6 3 0 2
node 7 1 0 2
gene 2 1 6 0.149103 0 1 0.149103 1
gene 2 2 6 0.114011 0 2 0.114011 1
gene 3 3 6 -0.643851 0 3 -0.643851 1
gene 2 4 6 -0.259854 0 4 -0.259854 1
gene 1 5 6 0.693924 0 5 0.693924 1
gene 1 1 7 -0.573939 0 6 -0.573939 1
gene 2 2 7 0.549178 0 7 0.549178 1
gene 2 3 7 0.0911393 0 8 0.0911393 1
gene 2 4 7 -0.816953 0 9 -0.816953 1
gene 3 5 7 1.10099 0 10 1.10099 1
genomeend 129

/* Organism #130 Fitness: 15 Error: 0 */
genomestart 130
trait 1 0.1 0 0 0 0 0 0 0 
trait 2 0.2 0 0 0 0 0 0 0 
trait 3 0.3 0 0 0 0 0 0 0 
node 1 1 1 3
node 2 2 1 1
node 3 2 1 1
node 4 3 1 1
node 5 3 1 1
node 6 1 0 2
node 7 3 0 2
gene 2 1 6 -1.15339 0 1 -1.15339 1
gene 3 2 6 0.86341 0 2 0.86341 1
gene 1 3 6 0.0815293 0 3 0.0815293 1
gene 3 4 6 -1.75952 0 4 -1.75952 1
gene 3 5 6 0.720035 0 5 0.720035 1
gene 2 1 7 -0.185848 0 6 -0.185848 1
gene 3 2 7 -1.5851 0 7 -1.5851 1
gene 3 3 7 -0.502592 0 8 -0.502592 1
gene 2 4 7 0.727423 0 9 0.727423 1
gene 1 5 7 0.0475683 0 10 0.0475683 1
genomeend 130

/* Organism #131 Fitness: 14 Error: 0 */
genomestart 131
trait 1 0.1 0 0 0 0 0 0 0 
trait 2 0.2 0 0 0 0 0 0 0 
trait 3 0.3 0 0 0 0 0 0 0 
node 1 3 1 3
node 2 3 1 1
node 3 2 1 1
node 4 3 1 1
node 5 3 1 1
node 6 3 0 2
node 7 3 0 2
gene 3 1 6 0.440521 0 1 0.440521 1
gene 3 2 6 0.979247 0 2 0.979247 1
gene 3 3 6 -0.965544 0 3 -0.965544 1
gene 1 4 6 0.101254 0 4 0.101254 1
gene 1 5 6 -0.201319 0 5 -0.201319 1
gene 3 1 7 -0.087705 0 6 -0.087705 1
gene 2 2 7 0.868837 0 7 0.868837 1
gene 3 3 7 0.197451 0 8 0.197451 1
gene 3 4 7 0.0027265 0 9 0.0027265 1
gene 3 5 7 -0.217753 0 10 -0.217753 1
genomeend 131

/* Organism #132 Fitness: 7 Error: 0 */
genomestart 132
trait 1 0.806634 0 0 0 0 0 0.301265 0 
trait 2 0.2 0 0 0 0 0 0 0 
trait 3 0.3 0 0 0 0 0 0 0 
node 1 2 1 3
node 2 2 1 1
node 3 2 1 1
node 4 2 1 1
node 5 2 1 1
node 6 3 0 2
node 7 3 0 2
gene 1 1 6 -1.02597 0 1 -1.02597 1
gene 3 2 6 0.266759 0 2 0.266759 1
gene 2 3 6 -1.20177 0 3 -1.20177 1
gene 1 4 6 -1.22569 0 4 -1.22569 1
gene 1 5 6 -1.20665 0 5 -1.20665 1
gene 1 1 7 -0.712076 0 6 -0.712076 1
gene 2 2 7 -0.450569 0 7 -0.450569 1
gene 1 3 7 0.205352 0 8 0.205352 1
gene 2 4 7 -0.196269 0 9 -0.196269 1
gene 1 5 7 -0.145256 0 10 -0.145256 1
genomeend 132

/* Organism #133 Fitness: 44 Error: 0 */
genomestart 133
trait 1 0.1 0 0 0 0 0 0 0 
trait 2 0.2 0 0 0 0 0 0 0 
trait 3 0.3 0 0 0 0 0 0 0 
node 1 1 1 3
node 2 2 1 1
node 3 2 1 1
node 4 3 1 1
node 5 3 1 1
node 6 3 0 2
node 7 1 0 2
gene 3 1 6 0.0974133 0 1 0.0974133 1
gene 3 2 6 -0.116577 0 2 -0.116577 1
gene 2 3 6 0.188917 0 3 0.188917 1
gene 2 4 6 0.134329 0 4 0.134329 1
gene 1 5 6 -0.679071 0 5 -0.679071 1
gene 1 1 7 -0.0136881 0 6 -0.0136881 1
gene 3 2 7 0.248704 0 7 0.248704 1
gene 3 3 7 -0.0440902 0 8 -0.0440902 1
gene 3 4 7 0.084029 0 9 0.084029 1
gene 2 5 7 0.384585 0 10 0.384585 1
gene 1 7 6 -0.191787 0 14 0 1
genomeend 133

/* Organism #134 Fitness: 11 Error: 0 */
genomestart 134
trait 1 0.1 0 0 0 0 0 0 0 
trait 2 0.2 0 0 0 0 0 0 0 
trait 3 0.3 0 0 0 0 0 0 0 
node 1 2 1 3
node 2 3 1 1
node 3 3 1 1
node 4 2 1 1
node 5 2 1 1
node 6 1 0 2
node 7 1 0 2
gene 1 1 6 -0.0435369 0 1 -0.0435369 1
gene 1 2 6 0.582298 0 2 0.582298 1
gene 2 3 6 -0.247815 0 3 -0.247815 1
gene 2 4 6 0.513607 0 4 0.513607 1
gene 3 5 6 -0.109329 0 5 -0.109329 1
gene 3 1 7 0.294672 0 6 0.294672 1
gene 3 2 7 -0.637892 0 7 -0.637892 1
gene 3 3 7 -0.0542372 0 8 -0.0542372 1
gene 2 4 7 0.45986 0 9 0.45986 1
gene 1 5 7 0.0995418 0 10 0.0995418 1
genomeend 134

/* Organism #135 Fitness: 3 Error: 0 */
genomestart 135
trait 1 0.1 0 0 0 0 0 0 0 
trait 2 0.2 0 0 0 0 0 0 0 
trait 3 0.3 0 0 0 0 0 0 0 
node 1 1 1 3
node 2 3 1 1
node 3 2 1 1
node 4 2 1 1
node 5 1 1 1
node 6 1 0 2
node 7 1 0 2
gene 3 1 6 0.436063 0 1 0.436063 1
gene 1 2 6 0.222619 0 2 0.222619 1
gene 3 3 6 0.603385 0 3 0.603385 1
gene 1 4 6 0.152107 0 4 0.152107 1
gene 2 5 6 -1.06077 0 5 -1.06077 1
gene 1 1 7 -0.316729 0 6 -0.316729 1
gene 1 2 7 0.0162099 0 7 0.0162099 1
gene 1 3 7 0.24498 0 8 0.24498 1
gene 3 4 7 -0.667158 0 9 -0.667158 1
gene 2 5 7 -1.23286 0 10 -1.23286 1
genomeend 135

/* Organism #136 Fitness: 3 Error: 0 */
genomestart 136
trait 1 0.1 0 0 0 0 0 0 0 
trait 2 0.2 0 0 0 0 0 0 0 
trait 3 0 0 0 0.0997338 0 0 0 0 
node 1 3 1 3
node 2 1 1 1
node 3 3 1 1
node 4 3 1 1
node 5 2 1 1
node 6 3 0 2
node 7 1 0 2
gene 3 1 6 -0.0580028 0 1 -0.0580028 1
gene 3 2 6 0.171257 0 2 0.171257 1
gene 1 3 6 0.404056 0 3 0.404056 1
gene 1 4 6 0.953091 0 4 0.953091 1
gene 1 5 6 -0.672731 0 5 -0.672731 1
gene 3 1 7 0.784974 0 6 0.784974 1
gene 3 2 7 -0.499983 0 7 -0.499983 1
gene 2 3 7 -0.382993 0 8 -0.382993 1
gene 3 4 7 -0.359985 0 9 -0.359985 1
gene 3 5 7 0.662057 0 10 0.662057 1
genomeend 136

/* Organism #137 Fitness: 3 Error: 0 */
genomestart 137
trait 1 0.1 0 0 0 0 0 0 0 
trait 2 0.2 0 0 0 0 0 0 0 
trait 3 0.3 0 0 0 0 0 0 0 
node 1 1 1 3
node 2 1 1 1
node 3 2 1 1
node 4 1 1 1
node 5 2 1 1
node 6 1 0 2
node 7 3 0 2
gene 3 1 6 -0.159056 0 1 -0.159056 1
gene 1 2 6 0.995058 0 2 0.995058 1
gene 3 3 6 0.807258 0 3 0.807258 1
gene 1 4 6 0.815534 0 4 0.815534 1
gene 3 5 6 -0.243773 0 5 -0.243773 1
gene 3 1 7 0.25796 0 6 0.25796 1
gene 3 2 7 0.739036 0 7 0.739036 1
gene 2 3 7 -0.929633 0 8 -0.929633 1
gene 2 4 7 0.772081 0 9 0.772081 1
gene 2 5 7 -0.106425 0 10 -0.106425 1
genomeend 137

/* Organism #138 Fitness: 8 Error: 0 */
genomestart 138
trait 1 0.1 0 0 0 0 0 0 0 
trait 2 0.2 0 0 0 0 0 0 0 
trait 3 0.3 0 0 0 0 0 0 0 
node 1 1 1 3
node 2 3 1 1
node 3 3 1 1
node 4 2 1 1
node 5 3 1 1
node 6 2 0 2
node 7 1 0 2
gene 3 1 6 0.625675 0 1 0.625675 1
gene 1 2 6 -0.327674 0 2 -0.327674 1
gene 3 3 6 -0.0932622 0 3 -0.0932622 1
gene 1 4 6 0.405071 0 4 0.405071 1
gene 1 5 6 -0.207351 0 5 -0.207351 1
gene 1 1 7 1.06771 0 6 1.06771 1
gene 3 2 7 0.844576 0 7 0.844576 1
gene 1 3 7 -1.38696 0 8 -1.38696 1
gene 3 4 7 0.908107 0 9 0.908107 1
gene 1 5 7 -0.815146 0 10 -0.815146 1
genomeend 138

/* Organism #139 Fitness: 18 Error: 0 */
genomestart 139
trait 1 0.1 0 0 0 0 0 0 0 
trait 2 0.2 0 0 0 0 0 0 0 
trait 3 0.3 0 0 0 0 0 0 0 
node 1 2 1 3
node 2 3 1 1
node 3 1 1 1
node 4 3 1 1
node 5 3 1 1
node 6 2 0 2
node 7 2 0 2
gene 3 1 6 -0.486636 0 1 -0.486636 1
gene 3 2 6 -1.37333 0 2 -1.37333 1
gene 3 3 6 0.0524257 0 3 0.0524257 1
gene 3 4 6 -0.619047 0 4 -0.619047 1
gene 2 5 6 1.78723 0 5 1.78723 1
gene 2 1 7 0.60374 0 6 0.60374 1
gene 1 2 7 0.454365 0 7 0.454365 1
gene 1 3 7 0.904978 0 8 0.904978 1
gene 2 4 7 1.17305 0 9 1.17305 1
gene 2 5 7 1.39346 0 10 1.39346 1
genomeend 139

/* Organism #140 Fitness: 13 Error: 0 */
genomestart 140
trait 1 0.1 0 0 0 0 0 0 0 
trait 2 0.2 0 0 0 0 0 0 0 
trait 3 0.3 0 0 0 0 0 0 0 
node 1 1 1 3
node 2 2 1 1
node 3 2 1 1
node 4 2 1 1
node 5 1 1 1
node 6 2 0 2
node 7 2 0 2
gene 1 1 6 0.570722 0 1 0.570722 1
gene 1 2 6 0.936327 0 2 0.936327 1
gene 3 3 6 0.463651 0 3 0.463651 1
gene 3 4 6 0.00118013 0 4 0.00118013 1
gene 2 5 6 -0.112915 0 5 -0.112915 1
gene 3 1 7 0.0707086 0 6 0.0707086 1
gene 1 2 7 -0.170991 0 7 -0.170991 1
gene 3 3 7 1.89617 0 8 1.89617 1
gene 3 4 7 -0.0885958 0 9 -0.0885958 1
gene 1 5 7 1.14568 0 10 1.14568 1
genomeend 140

/* Organism #141 Fitness: 11 Error: 0 */
genomestart 141
trait 1 0.1 0 0 0 0 0 0 0 
trait 2 0.2 0 0 0 0 0 0 0 
trait 3 0.3 0 0 0 0 0 0 0 
node 1 1 1 3
node 2 3 1 1
node 3 3 1 1
node 4 3 1 1
node 5 2 1 1
node 6 3 0 2
node 7 2 0 2
gene 2 1 6 0.626737 0 1 0.626737 1
gene 2 2 6 -0.572663 0 2 -0.572663 1
gene 3 3 6 -1.06225 0 3 -1.06225 1
gene 2 4 6 -1.10986 0 4 -1.10986 1
gene 3 5 6 -1.24655 0 5 -1.24655 1
gene 2 1 7 0.0158218 0 6 0.0158218 1
gene 2 2 7 -0.469509 0 7 -0.469509 1
gene 2 3 7 0.23229 0 8 0.23229 1
gene 1 4 7 0.927164 0 9 0.927164 1
gene 2 5 7 0.807087 0 10 0.807087 1
genomeend 141

/* Organism #142 Fitness: 1 Error: 0 */
genomestart 142
trait 1 0.1 0 0 0 0 0 0 0 
trait 2 0.2 0 0 0 0 0 0 0 
trait 3 0.3 0 0 0 0 0 0 0 
node 1 2 1 3
node 2 3 1 1
node 3 3 1 1
node 4 1 1 1
node 5 1 1 1
node 6 1 0 2
node 7 1 0 2
gene 3 1 6 -0.695783 0 1 -0.695783 1
gene 1 2 6 0.664117 0 2 0.664117 1
gene 3 3 6 0.427723 0 3 0.427723 1
gene 3 4 6 -0.8814 0 4 -0.8814 1
gene 3 5 6 0.103006 0 5 0.103006 1
gene 1 1 7 -0.606021 0 6 -0.606021 1
gene 3 2 7 0.10055 0 7 0.10055 1
gene 1 3 7 -0.0437515 0 8 -0.0437515 1
gene 1 4 7 0.624171 0 9 0.624171 1
gene 2 5 7 0.721335 0 10 0.721335 1
gene 1 7 6 -0.191787 0 14 0 1
genomeend 142

/* Organism #143 Fitness: 11 Error: 0 */
genomestart 143
trait 1 0.1 0 0 0 0 0 0 0 
trait 2 0.2 0 0 0 0 0 0 0 
trait 3 0.3 0 0 0 0 0 0 0 
node 1 1 1 3
node 2 1 1 1
node 3 2 1 1
node 4 3 1 1
node 5 1 1 1
node 6 1 0 2
node 7 1 0 2
gene 3 1 6 -0.377574 0 1 -0.377574 1
gene 1 2 6 -0.600986 0 2 -0.600986 1
gene 3 3 6 0.0935874 0 3 0.0935874 1
gene 2 4 6 -0.082111 0 4 -0.082111 1
gene 2 5 6 -0.212358 0 5 -0.212358 1
gene 1 1 7 0.409652 0 6 0.409652 1
gene 3 2 7 0.58666 0 7 0.58666 1
gene 1 3 7 -0.551759 0 8 -0.551759 1
gene 2 4 7 0.234261 0 9 0.234261 1
gene 3 5 7 0.550238 0 10 0.550238 1
gene 1 6 7 -0.0904572 0 11 0 1
genomeend 143

/* Organism #144 Fitness: 9 Error: 0 */
genomestart 144
trait 1 0.1 0 0 0 0 0 0 0 
trait 2 0.2 0 0 0 0 0 0 0 
trait 3 0.3 0 0 0 0 0 0 0 
node 1 1 1 3
node 2 1 1 1
node 3 1 1 1
node 4 1 1 1
node 5 1 1 1
node 6 2 0 2
node 7 2 0 2
gene 3 1 6 0.473639 0 1 0.473639 1
gene 3 2 6 0.625707 0 2 0.625707 1
gene 3 3 6 0.272436 0 3 0.272436 1
gene 1 4 6 0.414993 0 4 0.414993 1
gene 1 5 6 0.968898 0 5 0.968898 1
gene 3 1 7 0.669639 0 6 0.669639 1
gene 1 2 7 -0.0414408 0 7 -0.0414408 1
gene 3 3 7 0.647189 0 8 0.647189 1
gene 3 4 7 -0.32317 0 9 -0.32317 1
gene 3 5 7 0.788007 0 10 0.788007 1
genomeend 144

/* Organism #145 Fitness: 6 Error: 0 */
genomestart 145
trait 1 0.1 0 0 0 0 0 0 0 
trait 2 0.2 0 0 0 0 0 0 0 
trait 3 0.3 0 0 0 0 0 0 0 
node 1 1 1 3
node 2 1 1 1
node 3 3 1 1
node 4 1 1 1
node 5 3 1 1
node 6 2 0 2
node 7 2 0 2
gene 2 1 6 0.641661 0 1 0.641661 1
gene 3 2 6 0.910697 0 2 0.910697 1
gene 1 3 6 0.207702 0 3 0.207702 1
gene 1 4 6 0.20238 0 4 0.20238 1
gene 1 5 6 -0.656003 0 5 -0.656003 1
gene 2 1 7 0.994477 0 6 0.994477 1
gene 1 2 7 0.365519 0 7 0.365519 1
gene 1 3 7 -0.409317 0 8 -0.409317 1
gene 2 4 7 -0.591439 0 9 -0.591439 1
gene 3 5 7 0.757657 0 10 0.757657 1
genomeend 145

/* Organism #146 Fitness: 9 Error: 0 */
genomestart 146
trait 1 0.1 0 0 0 0 0 0 0 
trait 2 0.2 0 0 0 0 0 0 0 
trait 3 0.3 0 0 0 0 0 0 0 
node 1 1 1 3
node 2 3 1 1
node 3 1 1 1
node 4 1 1 1
node 5 3 1 1
node 6 2 0 2
node 7 3 0 2
gene 1 1 6 -0.457187 0 1 -0.457187 1
gene 3 2 6 -0.42883 0 2 -0.42883 1
gene 3 3 6 0.219544 0 3 0.219544 1
gene 2 4 6 -0.262147 0 4 -0.262147 1
gene 2 5 6 0.247589 0 5 0.247589 1
gene 1 1 7 0.222706 0 6 0.222706 1
gene 3 2 7 0.543493 0 7 0.543493 1
gene 1 3 7 0.629074 0 8 0.629074 1
gene 1 4 7 -0.391719 0 9 -0.391719 1
gene 1 5 7 0.808174 0 10 0.808174 1
genomeend 146

/* Organism #147 Fitness: 3 Error: 0 */
genomestart 147
trait 1 0.1 0 0 0 0 0 0 0 
trait 2 0.2 0 0 0 0 0 0 0 
trait 3 0.3 0 0 0 0 0 0 0 
node 1 1 1 3
node 2 3 1 1
node 3 2 1 1
node 4 3 1 1
node 5 1 1 1
node 6 3 0 2
node 7 3 0 2
gene 1 1 6 0.611673 0 1 0.611673 1
gene 2 2 6 -0.744178 0 2 -0.744178 1
gene 1 3 6 0.37117 0 3 0.37117 1
gene 2 4 6 -1.47643 0 4 -1.47643 1
gene 1 5 6 1.03018 0 5 1.03018 1
gene 1 1 7 0.938135 0 6 0.938135 1
gene 1 2 7 1.0685 0 7 1.0685 1
gene 2 3 7 0.142849 0 8 0.142849 1
gene 3 4 7 -0.699022 0 9 -0.699022 1
gene 1 5 7 0.298111 0 10 0.298111 1
genomeend 147

/* Organism #148 Fitness: 13 Error: 0 */
genomestart 148
trait 1 0.1 0 0 0 0 0 0 0 
trait 2 0.2 0 0 0 0 0 0 0 
trait 3 0.3 0 0 0 0 0 0 0 
node 1 2 1 3
node 2 2 1 1
node 3 2 1 1
node 4 3 1 1
node 5 3 1 1
node 6 1 0 2
node 7 1 0 2
node 9 1 0 0
gene 3 1 6 0.273283 0 1 0.273283 1
gene 1 2 6 -0.642175 0 2 -0.642175 1
gene 3 3 6 -0.0841586 0 3 -0.0841586 1
gene 3 4 6 0.215789 0 4 0.215789 1
gene 2 5 6 -0.281656 0 5 -0.281656 1
gene 1 1 7 0.268147 0 6 0.268147 1
gene 3 2 7 0.447658 0 7 0.447658 1
gene 3 3 7 0.001484 0 8 0.001484 1
gene 1 4 7 -0.0335722 0 9 -0.0335722 1
gene 3 5 7 0.24638 0 10 0.24638 0
gene 3 5 9 1 0 21 0 1
gene 3 9 7 0.24638 0 22 0 1
genomeend 148

/* Organism #149 Fitness: 11 Error: 0 */
genomestart 149
trait 1 0.1 0 0 0 0 0 0 0 
trait 2 0.2 0 0 0 0 0 0 0 
trait 3 0.3 0 0 0 0 0 0 0 
node 1 3 1 3
node 2 3 1 1
node 3 1 1 1
node 4 1 1 1
node 5 2 1 1
node 6 1 0 2
node 7 1 0 2
gene 1 1 6 1.02629 0 1 1.02629 1
gene 2 2 6 1.81519 0 2 1.81519 1
gene 2 3 6 -0.170679 0 3 -0.170679 1
gene 1 4 6 -0.943614 0 4 -0.943614 1
gene 3 5 6 -0.881948 0 5 -0.881948 1
gene 1 1 7 1.4936 0 6 1.4936 1
gene 1 2 7 -1.13471 0 7 -1.13471 1
gene 3 3 7 0.725089 0 8 0.725089 1
gene 1 4 7 1.49595 0 9 1.49595 1
gene 3 5 7 -0.256895 0 10 -0.256895 1
genomeend 149

/* Organism #150 Fitness: 13 Error: 0 */
genomestart 150
trait 1 0.1 0 0 0 0 0 0 0 
trait 2 0.2 0 0 0 0 0 0 0 
trait 3 0.3 0 0 0 0 0 0 0 
node 1 3 1 3
node 2 2 1 1
node 3 2 1 1
node 4 1 1 1
node 5 2 1 1
node 6 1 0 2
node 7 2 0 2
gene 1 1 6 0.849091 0 1 0.849091 1
gene 2 2 6 0.160865 0 2 0.160865 1
gene 3 3 6 0.064971 0 3 0.064971 1
gene 3 4 6 -0.435742 0 4 -0.435742 1
gene 2 5 6 0.357647 0 5 0.357647 1
gene 2 1 7 0.495169 0 6 0.495169 1
gene 2 2 7 0.00559268 0 7 0.00559268 1
gene 1 3 7 -0.276189 0 8 -0.276189 1
gene 1 4 7 -0.25394 0 9 -0.25394 1
gene 2 5 7 0.523725 0 10 0.523725 1
gene 1 6 7 -0.0904572 0 11 0 1
genomeend 150

/* Organism #151 Fitness: 9 Error: 0 */
genomestart 151
trait 1 0.1 0 0 0 0 0 0 0 
trait 2 0.2 0 0 0 0 0 0 0 
trait 3 0.3 0 0 0 0 0 0 0 
node 1 2 1 3
node 2 1 1 1
node 3 3 1 1
node 4 3 1 1
node 5 1 1 1
node 6 1 0 2
node 7 3 0 2
gene 3 1 6 0.938562 0 1 0.938562 1
gene 1 2 6 -0.0622164 0 2 -0.0622164 1
gene 1 3 6 -0.71842 0 3 -0.71842 1
gene 1 4 6 -0.624806 0 4 -0.624806 1
gene 2 5 6 0.0128773 0 5 0.0128773 1
gene 1 1 7 0.122702 0 6 0.122702 1
gene 1 2 7 0.311322 0 7 0.311322 1
gene 2 3 7 -0.984248 0 8 -0.984248 1
gene 3 4 7 -0.621822 0 9 -0.621822 1
gene 1 5 7 -0.891382 0 10 -0.891382 1
genomeend 151

/* Organism #152 Fitness: 10 Error: 0 */
genomestart 152
trait 1 0.1 0 0 0 0 0 0 0 
trait 2 0.2 0 0 0 0 0 0 0 
trait 3 0.3 0 0 0 0 0 0 0 
node 1 2 1 3
node 2 3 1 1
node 3 2 1 1
node 4 2 1 1
node 5 3 1 1
node 6 3 0 2
node 7 2 0 2
gene 2 1 6 0.521388 0 1 0.521388 1
gene 1 2 6 0.22836 0 2 0.22836 1
gene 3 3 6 -1.23633 0 3 -1.23633 1
gene 2 4 6 -0.301424 0 4 -0.301424 1
gene 2 5 6 -1.70762 0 5 -1.70762 1
gene 3 1 7 -1.36109 0 6 -1.36109 1
gene 2 2 7 0.296249 0 7 0.296249 1
gene 3 3 7 0.0380018 0 8 0.0380018 1
gene 1 4 7 -0.909582 0 9 -0.909582 1
gene 3 5 7 -0.856937 0 10 -0.856937 1
genomeend 152

/* Organism #153 Fitness: 3 Error: 0 */
genomestart 153
trait 1 0.1 0 0 0 0 0 0 0 
trait 2 0.2 0 0 0 0 0 0 0 
trait 3 0.3 0 0 0 0 0 0 0 
node 1 3 1 3
node 2 1 1 1
node 3 3 1 1
node 4 3 1 1
node 5 1 1 1
node 6 1 0 2
node 7 3 0 2
gene 2 1 6 0.713293 0 1 0.713293 1
gene 1 2 6 -0.309381 0 2 -0.309381 1
gene 1 3 6 0.838611 0 3 0.838611 1
gene 3 4 6 -0.804659 0 4 -0.804659 1
gene 2 5 6 -0.475214 0 5 -0.475214 1
gene 2 1 7 0.0578263 0 6 0.0578263 1
gene 2 2 7 -0.909033 0 7 -0.909033 1
gene 3 3 7 -0.349493 0 8 -0.349493 1
gene 1 4 7 0.265693 0 9 0.265693 1
gene 2 5 7 -0.921779 0 10 -0.921779 1
gene 1 7 6 -0.191787 0 14 0 1
genomeend 153

/* Organism #154 Fitness: 2 Error: 0 */
genomestart 154
trait 1 0.1 0 0 0 0 0 0 0 
trait 2 0.2 0 0 0 0 0 0 0 
trait 3 0.3 0 0 0 0 0 0 0 
node 1 3 1 3
node 2 3 1 1
node 3 2 1 1
node 4 2 1 1
node 5 1 1 1
node 6 2 0 2
node 7 1 0 2
gene 2 1 6 1.12883 0 1 1.12883 1
gene 3 2 6 -0.542234 0 2 -0.542234 1
gene 2 3 6 0.640321 0 3 0.640321 1
gene 2 4 6 -1.23692 0 4 -1.23692 1
gene 2 5 6 0.282725 0 5 0.282725 1
gene 3 1 7 0.0976994 0 6 0.0976994 1
gene 3 2 7 -0.991073 0 7 -0.991073 1
gene 3 3 7 -1.50299 0 8 -1.50299 1
gene 1 4 7 0.55508 0 9 0.55508 1
gene 3 5 7 -0.20535 0 10 -0.20535 1
genomeend 154

/* Organism #155 Fitness: 8 Error: 0 */
genomestart 155
trait 1 0.1 0 0 0 0 0 0 0 
trait 2 0.2 0 0 0 0 0 0 0 
trait 3 0.3 0 0 0 0 0 0 0 
node 1 3 1 3
node 2 1 1 1
node 3 1 1 1
node 4 3 1 1
node 5 2 1 1
node 6 2 0 2
node 7 3 0 2
gene 1 1 6 0.786294 0 1 0.786294 1
gene 2 2 6 -1.46441 0 2 -1.46441 1
gene 1 3 6 -0.263419 0 3 -0.263419 1
gene 3 4 6 -0.331049 0 4 -0.331049 1
gene 1 5 6 0.216252 0 5 0.216252 1
gene 1 1 7 0.265249 0 6 0.265249 1
gene 3 2 7 0.0914264 0 7 0.0914264 1
gene 2 3 7 -0.353769 0 8 -0.353769 1
gene 3 4 7 -1.20137 0 9 -1.20137 1
gene 1 5 7 -1.13688 0 10 -1.13688 1
genomeend 155

/* Organism #156 Fitness: 9 Error: 0 */
genomestart 156
trait 1 0.1 0 0 0 0 0 0 0 
trait 2 0.2 0 0 0 0 0 0 0 
trait 3 0.3 0 0 0 0 0 0 0 
node 1 2 1 3
node 2 3 1 1
node 3 1 1 1
node 4 3 1 1
node 5 3 1 1
node 6 2 0 2
node 7 3 0 2
gene 3 1 6 -0.0345072 0 1 -0.0345072 1
gene 2 2 6 -0.130009 0 2 -0.130009 1
gene 2 3 6 -1.54476 0 3 -1.54476 1
gene 3 4 6 0.479736 0 4 0.479736 1
gene 3 5 6 -0.0203171 0 5 -0.0203171 1
gene 3 1 7 0.648667 0 6 0.648667 1
gene 3 2 7 -0.920292 0 7 -0.920292 1
gene 2 3 7 -0.0464808 0 8 -0.0464808 1
gene 1 4 7 -0.27822 0 9 -0.27822 1
gene 1 5 7 0.522284 0 10 0.522284 1
genomeend 156

/* Organism #157 Fitness: 2 Error: 0 */
genomestart 157
trait 1 0.1 0 0 0 0 0 0 0 
trait 2 0.2 0 0 0 0 0 0 0 
trait 3 0.3 0 0 0 0 0 0 0 
node 1 2 1 3
node 2 1 1 1
node 3 2 1 1
node 4 2 1 1
node 5 1 1 1
node 6 2 0 2
node 7 1 0 2
gene 2 1 6 -0.760268 0 1 -0.760268 1
gene 3 2 6 1.14893 0 2 1.14893 1
gene 2 3 6 -0.125172 0 3 -0.125172 1
gene 2 4 6 -0.676736 0 4 -0.676736 1
gene 1 5 6 -1.57631 0 5 -1.57631 1
gene 1 1 7 -0.2231 0 6 -0.2231 1
gene 1 2 7 0.62072 0 7 0.62072 1
gene 1 3 7 -0.941825 0 8 -0.941825 1
gene 1 4 7 1.25031 0 9 1.25031 1
gene 1 5 7 -0.502843 0 10 -0.502843 1
genomeend 157

/* Organism #158 Fitness: 13 Error: 0 */
genomestart 158
trait 1 0.1 0 0 0 0 0 0 0 
trait 2 0.2 0 0 0 0 0 0 0 
trait 3 0.3 0 0 0 0 0 0 0 
node 1 3 1 3
node 2 2 1 1
node 3 2 1 1
node 4 3 1 1
node 5 3 1 1
node 6 3 0 2
node 7 3 0 2
gene 3 1 6 0.255098 0 1 0.255098 1
gene 2 2 6 -0.820937 0 2 -0.820937 1
gene 1 3 6 -0.681279 0 3 -0.681279 1
gene 3 4 6 -0.664866 0 4 -0.664866 1
gene 3 5 6 0.146556 0 5 0.146556 1
gene 3 1 7 -1.5803 0 6 -1.5803 1
gene 2 2 7 -0.709252 0 7 -0.709252 1
gene 1 3 7 -0.258097 0 8 -0.258097 1
gene 1 4 7 0.983136 0 9 0.983136 1
gene 1 5 7 0.0337317 0 10 0.0337317 1
genomeend 158

/* Organism #159 Fitness: 7 Error: 0 */
genomestart 159
trait 1 0.1 0 0 0 0 0 0 0 
trait 2 0.2 0 0 0 0 0 0 0 
trait 3 0.3 0 0 0 0 0 0 0 
node 1 3 1 3
node 2 2 1 1
node 3 1 1 1
node 4 1 1 1
node 5 2 1 1
node 6 3 0 2
node 7 2 0 2
gene 3 1 6 0.3865 0 1 0.3865 1
gene 3 2 6 -0.512118 0 2 -0.512118 1
gene 1 3 6 -1.05909 0 3 -1.05909 1
gene 2 4 6 0.301011 0 4 0.301011 1
gene 3 5 6 0.87013 0 5 0.87013 1
gene 2 1 7 -1.34435 0 6 -1.34435 1
gene 1 2 7 -0.389024 0 7 -0.389024 1
gene 3 3 7 0.669017 0 8 0.669017 1
gene 2 4 7 -1.31609 0 9 -1.31609 1
gene 2 5 7 -0.431214 0 10 -0.431214 1
genomeend 159

/* Organism #160 Fitness: 10 Error: 0 */
genomestart 160
trait 1 0.1 0 0 0 0 0 0 0 
trait 2 0.2 0 0 0 0 0 0 0 
trait 3 0.3 0 0 0 0 0 0 0 
node 1 3 1 3
node 2 1 1 1
node 3 3 1 1
node 4 3 1 1
node 5 2 1 1
node 6 3 0 2
node 7 1 0 2
gene 3 1 6 0.0108861 0 1 0.0108861 1
gene 3 2 6 0.367114 0 2 0.367114 1
gene 1 3 6 0.413835 0 3 0.413835 1
gene 1 4 6 0.21835 0 4 0.21835 1
gene 1 5 6 -0.714248 0 5 -0.714248 1
gene 3 1 7 -0.0664276 0 6 -0.0664276 1
gene 3 2 7 -0.397359 0 7 -0.397359 1
gene 1 3 7 -0.628303 0 8 -0.628303 1
gene 3 4 7 -0.622932 0 9 -0.622932 1
gene 2 5 7 -0.267001 0 10 -0.267001 1
gene 1 7 6 -0.191787 0 14 0 1
genomeend 160

/* Organism #161 Fitness: 9 Error: 0 */
genomestart 161
trait 1 0.1 0 0 0 0 0 0 0 
trait 2 0.2 0 0 0 0 0 0 0 
trait 3 0.3 0 0 0 0 0 0 0 
node 1 1 1 3
node 2 1 1 1
node 3 1 1 1
node 4 1 1 1
node 5 1 1 1
node 6 2 0 2
node 7 2 0 2
gene 1 1 6 -0.160917 0 1 -0.160917 1
gene 3 2 6 -0.11209 0 2 -0.11209 1
gene 3 3 6 0.901267 0 3 0.901267 1
gene 2 4 6 1.2096 0 4 1.2096 1
gene 1 5 6 -0.168351 0 5 -0.168351 1
gene 3 1 7 0.00116942 0 6 0.00116942 1
gene 3 2 7 0.390711 0 7 0.390711 1
gene 1 3 7 -0.351557 0 8 -0.351557 1
gene 3 4 7 0.0163204 0 9 0.0163204 1
gene 2 5 7 -0.706405 0 10 -0.706405 1
genomeend 161

/* Organism #162 Fitness: 2 Error: 0 */
genomestart 162
trait 1 0.1 0 0 0 0 0 0 0 
trait 2 0.2 0 0 0 0 0 0 0 
trait 3 0.3 0 0 0 0 0 0 0 
node 1 1 1 3
node 2 1 1 1
node 3 2 1 1
node 4 2 1 1
node 5 1 1 1
node 6 3 0 2
node 7 3 0 2
gene 3 1 6 -0.728178 0 1 -0.728178 1
gene 1 2 6 -0.87866 0 2 -0.87866 1
gene 2 3 6 0.309636 0 3 0.309636 1
gene 3 4 6 0.490124 0 4 0.490124 1
gene 2 5 6 -1.47515 0 5 -1.47515 1
gene 1 1 7 0.811382 0 6 0.811382 1
gene 2 2 7 -1.07704 0 7 -1.07704 1
gene 1 3 7 -0.711433 0 8 -0.711433 1
gene 1 4 7 -0.0585626 0 9 -0.0585626 1
gene 2 5 7 0.477111 0 10 0.477111 1
genomeend 162

/* Organism #163 Fitness: 4 Error: 0 */
genomestart 163
trait 1 0.1 0 0 0 0 0 0 0 
trait 2 0.2 0 0 0 0 0 0 0 
trait 3 0.3 0 0 0 0 0 0 0 
node 1 1 1 3
node 2 3 1 1
node 3 2 1 1
node 4 1 1 1
node 5 1 1 1
node 6 1 0 2
node 7 2 0 2
gene 2 1 6 -0.595613 0 1 -0.595613 1
gene 2 2 6 -0.159424 0 2 -0.159424 1
gene 2 3 6 0.576643 0 3 0.576643 1
gene 2 4 6 1.03839 0 4 1.03839 1
gene 2 5 6 -1.07931 0 5 -1.07931 1
gene 2 1 7 -0.103614 0 6 -0.103614 1
gene 3 2 7 0.685762 0 7 0.685762 1
gene 2 3 7 0.128504 0 8 0.128504 1
gene 2 4 7 -0.25258 0 9 -0.25258 1
gene 1 5 7 0.447975 0 10 0.447975 1
genomeend 163

/* Organism #164 Fitness: 14 Error: 0 */
genomestart 164
